SVM-light Version V6.02
0 # kernel type
3 # kernel parameter -d 
1 # kernel parameter -g 
1 # kernel parameter -s 
1 # kernel parameter -r 
empty# kernel parameter -u 
14781 # highest feature index 
5485 # number of training documents 
681 # number of support vectors plus 1 
0.55546237 # threshold b, each following line is a SV (starting with alpha*y)
-0.00042044662643478864 1:1 2:2 3:2 4:1 5:2 6:3 7:2 8:2 9:2 10:1 11:1 12:2 13:2 14:1 15:2 16:1 17:1 18:1 19:1 20:1 21:1 22:1 23:1 24:2 25:1 #
-0.0056469227004790424 50:1 296:2 319:1 353:1 761:1 818:1 986:1 1270:2 4489:1 5194:1 #
0.0029659219378973833 7:1 8:2 16:2 23:1 25:1 26:1 48:1 49:4 50:2 63:3 77:1 157:1 162:1 172:1 200:1 353:1 360:1 447:1 450:1 524:1 601:2 662:1 813:1 892:1 977:1 989:1 1092:2 1093:1 1310:2 1378:1 1423:1 1481:1 1566:1 2050:1 2301:1 2778:1 3572:1 4270:1 4543:2 5236:3 5237:1 5238:1 5239:1 5240:1 #
-0.0068162167454738371 49:1 217:1 261:1 265:1 333:1 406:2 1106:1 1491:1 1585:1 2684:1 2985:1 #
0.0068162167454738371 26:1 32:1 40:2 99:1 114:1 287:1 13646:1 13647:1 #
0.0068162167454738371 26:1 285:1 319:1 774:1 777:1 1824:1 12190:1 12191:1 #
0.0068162167454738371 26:1 40:2 99:1 217:1 287:1 599:1 1868:1 6007:1 #
0.0068162167454738371 12:1 24:1 26:1 48:1 285:1 319:1 1554:1 1557:1 1899:1 6397:1 #
3.6689191979599793e-005 8:3 16:2 25:1 26:1 31:4 43:1 46:1 50:8 68:1 81:1 126:1 151:2 155:1 180:1 190:1 193:2 240:1 296:1 301:1 321:4 330:1 336:2 353:7 365:2 390:2 400:1 427:1 436:1 477:1 488:1 499:1 501:1 524:1 551:2 605:1 627:2 653:1 679:1 688:2 716:1 848:1 876:1 913:1 921:1 1034:1 1056:1 1089:1 1103:1 1142:1 1192:1 1287:2 1292:1 1331:1 1349:1 1469:3 1575:1 1639:2 1646:1 1668:1 1756:1 1815:1 1842:1 1891:1 1907:1 1957:1 2817:2 2839:2 2996:1 3161:1 3420:1 3478:1 3801:1 3937:2 3940:1 3941:1 3942:1 4265:1 4587:1 4876:1 5785:1 6967:1 6968:1 7114:1 7499:1 7500:1 7501:1 7502:1 7503:1 7504:1 #
-0.0068162167454738371 49:2 89:1 198:1 236:1 265:1 330:1 406:1 421:1 440:1 4417:1 #
0.0068162167454738371 8:1 12:1 26:1 49:1 304:1 599:1 629:1 1832:1 5674:1 #
-0.0068162167454738371 8:1 15:1 20:3 25:1 48:2 172:2 265:1 314:1 442:2 445:1 792:1 795:1 989:1 1349:1 1365:2 1423:1 1626:2 4637:3 4638:1 4639:1 4878:1 5317:1 8529:1 8530:1 8531:1 11144:1 13876:1 #
-0.0068162167454738371 24:2 40:2 185:1 198:1 296:2 427:2 460:1 #
-0.0068162167454738371 3:1 6:1 8:2 11:1 12:1 16:2 24:1 25:1 31:1 40:1 158:1 198:1 205:1 217:1 222:2 258:1 287:2 454:1 473:1 479:1 539:1 547:1 554:2 597:1 605:1 637:2 688:1 731:2 755:1 788:1 930:1 971:1 989:1 1028:1 1092:1 1111:1 1455:1 1954:1 2110:1 2189:1 2190:1 2767:1 2778:1 2949:1 2952:1 8268:4 8269:1 8270:1 8271:1 8272:1 #
0.0045556373932852199 6:1 8:1 12:1 24:2 25:1 26:1 33:1 40:9 42:3 98:4 100:4 117:2 144:1 145:1 147:1 155:2 212:1 395:1 456:2 483:2 484:2 526:1 540:1 572:1 733:1 851:1 862:2 935:2 1912:1 3723:1 10693:5 11959:1 11960:1 #
-0.0068162167454738371 15:1 40:1 169:1 217:1 261:1 447:1 554:1 755:1 4366:1 12627:1 #
0.0053294123503671116 1:1 8:2 12:2 16:1 24:6 25:1 26:1 30:1 40:5 42:2 46:2 47:1 50:2 62:1 70:1 85:2 98:1 102:2 104:1 109:1 117:1 118:1 125:1 128:1 146:3 164:1 165:1 180:2 217:1 223:1 250:1 251:1 265:1 346:1 353:2 360:1 456:2 461:2 483:1 550:1 632:1 683:1 688:1 716:2 840:1 967:2 968:2 977:1 1026:1 1058:1 1088:1 1130:2 1265:1 1367:1 1493:1 1557:3 1567:1 1570:1 2251:1 2260:1 2435:1 2536:1 3213:1 3569:1 4077:1 9483:3 11068:1 13344:5 13345:1 #
0.0036017015397797549 8:3 16:1 25:1 26:1 44:1 63:2 81:1 85:3 168:1 193:1 258:3 353:1 360:1 522:1 526:1 540:1 544:1 554:1 555:1 700:1 710:1 816:1 921:1 1092:1 1242:1 1366:1 1524:1 1810:1 2078:2 2502:2 2893:1 3060:1 3199:1 3462:1 3472:2 3852:2 4255:1 6541:3 6543:2 8312:1 8313:1 #
0.0037146521371741238 1:3 3:1 6:1 8:3 12:2 16:4 24:5 25:1 26:1 30:1 31:2 33:3 40:6 42:3 44:1 50:4 51:1 55:1 98:1 114:1 128:1 137:2 143:2 146:3 153:4 155:2 180:1 226:1 273:1 352:1 353:1 360:1 426:1 456:1 468:1 522:1 526:2 572:1 636:1 647:1 685:1 940:2 1026:1 1290:1 1293:1 1679:1 2022:1 2330:1 2420:1 2597:2 3042:1 5235:1 5434:6 5435:1 5436:4 5437:1 5438:1 5439:1 #
-0.0029780977405719057 1:1 8:2 12:8 16:1 21:1 25:1 40:2 50:1 56:2 70:1 75:1 79:1 81:2 82:1 87:1 89:1 127:1 146:1 166:1 180:1 192:3 201:2 222:3 226:1 250:1 264:1 269:1 289:1 305:2 316:1 395:1 479:1 524:1 530:3 574:1 611:4 683:1 687:1 842:1 877:3 987:7 988:1 1041:1 1174:1 1388:3 1426:1 1492:2 1493:1 1495:2 1554:1 1660:1 1661:1 1730:1 1762:1 2659:1 2838:1 #
-0.005420943394656267 1:1 6:1 8:2 9:1 11:1 12:4 16:2 25:1 63:1 85:1 92:1 127:3 171:1 180:1 196:1 205:2 209:1 220:1 223:1 225:1 244:1 279:1 417:1 488:1 524:1 530:1 563:1 572:2 632:1 655:1 971:1 989:3 1084:1 1088:1 1133:1 1310:1 1774:1 1929:2 2008:1 2086:1 2251:1 2945:3 3447:1 7091:5 7092:1 7093:4 7094:3 7095:1 #
-0.0033737947895352296 1:1 6:6 8:8 9:2 11:7 12:3 13:2 14:1 16:4 25:1 33:4 40:1 41:5 42:1 43:2 44:4 45:11 46:1 49:4 50:5 51:1 52:1 53:1 55:1 56:1 60:1 61:2 84:1 100:1 127:3 128:1 180:1 205:1 219:2 220:2 223:1 224:1 237:1 304:1 305:1 307:1 364:3 395:1 526:1 530:2 572:1 653:1 712:1 819:1 952:1 1189:1 1333:1 1445:3 1613:1 1795:2 1833:1 1839:1 1977:1 2010:1 2110:2 2511:1 5281:1 10827:8 10828:1 10829:1 #
-0.0068162167454738371 61:1 171:1 190:1 236:1 319:1 455:1 848:1 913:1 1299:1 6748:1 #
0.00088949090041402399 8:12 16:1 25:4 26:1 30:1 31:12 34:1 42:1 43:3 44:2 50:26 60:5 61:1 68:2 69:1 81:1 84:1 89:3 105:1 114:1 128:1 151:3 152:4 168:1 180:1 193:1 200:8 205:1 209:1 231:1 296:3 301:1 306:2 311:1 319:1 321:7 330:1 336:1 338:3 353:20 365:1 390:3 399:2 405:1 426:1 436:1 447:1 462:2 476:2 477:1 488:3 492:1 499:1 534:1 546:1 550:3 601:1 605:1 615:1 616:1 626:1 627:1 632:1 634:1 635:1 636:2 671:1 688:1 714:1 716:1 733:1 777:1 848:1 860:1 862:2 869:2 877:4 881:1 912:2 913:1 962:1 971:1 979:1 1004:1 1034:1 1056:2 1089:1 1094:3 1097:1 1142:1 1193:2 1203:1 1234:2 1244:1 1277:1 1287:1 1292:2 1317:1 1393:3 1403:2 1467:1 1469:5 1639:2 1661:1 1662:1 1756:1 1759:1 1776:1 1805:1 1813:1 1815:1 1823:1 1824:1 1825:1 1859:1 1898:1 1907:1 2110:1 2170:1 2192:1 2204:1 2245:1 2460:1 2472:2 2479:1 2666:1 2734:1 2778:1 2813:1 2814:2 2815:3 2817:4 2839:1 2951:1 3052:1 3377:1 3420:1 3513:1 3572:1 3801:3 3874:1 3902:2 3937:2 3941:6 3942:6 4469:1 4543:1 4587:9 4626:1 5267:2 5309:2 6784:1 6794:1 6795:1 6967:2 6968:1 7158:1 7284:1 7418:1 7499:1 7503:1 7504:1 7961:1 7979:1 8102:1 8103:4 8104:1 8105:2 8106:1 8107:1 8108:1 8109:1 #
-0.0068162167454738371 50:2 84:1 353:1 397:1 513:1 912:1 1127:1 1179:1 1299:1 1730:1 3261:1 6361:1 12483:1 #
0.001430401678505778 8:3 25:1 26:1 36:1 44:1 50:1 60:1 81:1 85:1 180:1 321:1 365:1 406:4 541:1 627:2 640:1 689:1 730:1 802:1 842:1 1126:3 1142:1 1203:1 1224:1 1228:1 1233:1 1475:1 1622:1 1626:1 1671:1 1719:1 1901:1 2199:1 2528:1 2778:1 2952:1 3199:2 3479:2 4117:1 4251:6 4252:6 4253:1 4254:1 4255:1 4256:1 #
-9.2817142293274253e-005 1:1 6:1 8:3 11:1 12:3 16:1 24:3 25:1 31:2 32:2 40:1 69:1 85:1 100:1 110:2 111:2 128:1 141:1 145:1 205:2 230:1 265:1 287:1 485:4 522:2 743:2 774:1 1026:1 1524:1 1958:1 2414:6 2735:1 4228:1 4229:1 6872:1 13907:1 #
-0.0068162167454738371 49:1 236:1 265:1 321:1 598:1 1071:1 3041:1 #
-0.00068741666440028353 8:3 12:5 15:1 16:6 25:1 36:7 43:1 47:2 50:24 69:2 85:5 106:1 143:1 163:1 188:1 191:1 193:1 195:1 205:4 222:2 228:1 230:1 287:5 305:1 306:1 321:2 331:1 345:1 353:1 354:2 390:1 400:1 415:2 426:1 436:1 440:1 449:2 467:4 479:1 530:1 548:1 550:1 554:4 555:1 559:1 601:1 755:1 764:2 774:1 775:1 777:2 813:1 851:4 862:1 883:1 897:1 931:1 990:1 1061:1 1094:4 1126:1 1224:2 1283:1 1366:1 1404:1 1446:1 1448:1 1449:1 1450:2 1451:1 1467:2 1494:1 1567:1 1588:1 1733:5 1806:1 1832:2 1918:1 1923:1 1966:1 2050:2 2078:1 2086:4 2123:4 2212:1 2265:2 2337:5 2342:2 2459:1 2767:1 2773:1 2820:6 2850:1 2853:1 2865:3 2967:1 3077:1 3146:1 3354:1 3759:1 3764:2 3801:15 3944:1 4266:1 4267:1 4268:1 4269:1 4270:2 4666:3 4692:1 5486:3 5517:1 5932:1 6261:1 6541:1 6543:1 6619:1 7172:1 7246:1 7288:1 7289:1 7306:1 7307:1 7308:2 7343:3 7580:1 7913:1 7917:3 8487:8 8663:8 9815:1 11661:3 11662:1 11667:2 11668:1 11669:3 11670:8 11932:2 12110:1 12111:1 12112:1 12113:4 12114:1 12115:1 12116:1 12117:1 12118:1 12119:2 12120:4 12121:1 12122:1 12123:1 12124:2 12125:1 12126:1 12127:1 12128:1 12129:1 #
-0.0026502694403868683 8:1 20:1 25:1 36:1 49:2 50:2 79:1 83:3 151:1 155:1 222:1 227:2 239:1 274:1 282:1 287:1 339:1 404:1 430:1 442:1 499:1 550:1 619:1 627:1 636:1 748:1 848:1 927:1 978:4 1246:1 1279:1 1424:1 1425:2 1472:2 1639:1 1645:1 1763:1 1825:1 1858:1 1885:1 1901:1 1920:1 1968:2 2217:1 2231:1 2393:1 2768:1 4063:1 4331:1 4667:1 5472:1 #
0.0024254416454724996 6:4 8:7 9:4 10:2 11:1 12:2 13:2 16:3 17:1 18:1 19:2 20:2 25:1 26:1 34:1 40:2 41:1 42:2 43:1 44:2 46:1 49:3 50:2 51:3 83:1 84:1 86:1 100:12 119:1 128:1 146:1 148:1 172:2 192:1 205:3 219:1 222:1 268:1 279:1 360:1 421:1 440:1 450:1 462:1 464:1 541:1 563:1 636:1 649:1 650:1 672:2 700:1 712:1 733:1 745:1 827:1 862:1 931:1 1026:1 1052:1 1110:1 1141:2 1147:1 1559:1 1641:1 1853:1 1865:1 1977:1 2005:1 2131:2 2409:1 2526:1 2528:1 2803:1 3416:10 3448:1 3806:1 4323:1 4324:1 4325:1 4326:1 4327:1 4328:1 4329:1 4330:1 4331:1 4332:1 #
-0.0068162167454738371 42:1 50:1 296:2 427:1 761:1 1127:1 1426:1 1469:1 4554:1 #
-0.0068162167454738371 50:2 162:1 263:1 319:1 353:1 397:1 646:1 801:1 1127:1 1299:1 4554:1 #
0.0031491759600177963 8:3 24:1 25:1 26:1 30:1 42:1 50:3 75:1 84:1 85:1 102:1 104:1 106:1 117:2 119:1 137:3 146:1 151:2 155:1 172:1 227:1 289:1 335:1 352:1 363:1 406:12 418:1 425:1 501:1 547:1 637:1 692:2 734:1 745:3 763:1 897:1 980:2 989:1 1068:1 1088:2 1089:3 1092:1 1094:1 1103:1 1108:1 1181:1 1234:1 1331:1 1365:1 1388:2 1465:1 1626:1 1628:1 1645:1 1777:1 1824:1 1909:1 2022:1 2199:1 2499:1 2562:1 4237:1 4894:1 5756:1 9739:5 9742:4 9744:2 10716:5 10717:7 10718:1 10719:1 10720:2 10721:1 10722:1 #
0.002673713085450283 8:4 14:1 23:1 24:5 25:1 26:1 31:1 33:2 40:6 42:1 54:1 60:1 62:1 69:2 81:2 102:1 104:3 110:4 118:2 128:1 137:2 152:1 155:2 180:1 190:1 222:2 225:1 265:1 305:1 360:1 383:1 395:1 406:8 451:2 452:3 477:1 526:1 567:4 568:2 605:3 615:3 627:1 650:1 682:1 689:1 721:1 744:1 779:1 829:1 848:1 967:1 968:1 1776:1 1954:1 2042:1 2425:2 2503:1 2765:3 3042:1 4377:1 4378:1 4379:1 4380:1 4381:1 4382:1 4383:1 #
-0.0026522285162520853 1:1 8:7 11:1 12:2 16:4 23:1 24:3 25:1 33:1 40:4 42:1 55:2 56:2 80:1 86:1 100:1 102:1 117:2 120:1 128:4 146:1 155:1 167:1 180:1 193:1 205:1 212:1 215:1 231:2 273:2 412:4 429:1 435:1 455:1 467:1 479:4 526:2 568:1 605:1 689:1 877:1 1095:1 1318:1 1320:2 1348:7 1423:2 1572:2 1628:1 1815:1 1854:1 2022:1 2058:1 2071:1 2251:1 2420:1 2597:2 2911:1 3030:2 3160:1 5467:1 5561:1 6288:1 11306:1 11308:1 #
-0.0068162167454738371 21:1 50:1 236:1 265:1 283:1 319:1 1106:1 1127:1 3214:1 4554:1 #
-1.4295093415301859e-005 1:1 3:1 8:8 16:8 21:1 24:1 25:1 28:2 31:1 40:2 49:4 50:1 59:1 60:3 61:1 71:1 80:1 84:1 118:2 137:1 141:1 143:1 148:2 151:1 157:1 172:2 201:1 205:1 212:1 222:2 226:1 250:2 265:1 266:2 269:1 287:1 306:1 330:2 331:1 339:1 351:2 353:1 364:1 404:1 479:1 484:2 513:1 524:1 541:1 550:1 636:1 666:1 671:2 745:2 774:1 792:1 819:1 828:1 830:1 848:1 855:1 1178:1 1365:1 1376:1 1390:1 1425:1 1626:1 1650:1 1668:3 1681:1 1709:1 1710:1 1747:1 1814:1 1901:1 1905:1 1918:1 2009:2 2016:1 2460:1 2469:2 2561:1 2564:1 3013:1 3810:1 4230:11 4267:1 6328:10 6329:1 6698:1 6793:4 7475:1 7584:1 8768:1 9660:1 11910:1 12574:3 12900:1 #
-0.0052523308152270503 1:1 6:3 8:4 11:2 12:4 15:2 16:3 24:2 25:1 31:2 40:2 69:1 83:2 89:1 114:1 125:1 143:1 205:1 209:1 212:4 219:1 224:1 230:1 296:1 364:3 381:2 440:1 461:1 605:1 636:1 685:1 688:1 774:1 950:2 977:1 1013:2 1068:6 1086:1 1220:1 1387:1 1559:1 1596:1 1780:1 1854:1 2010:1 2735:1 5243:4 6404:1 6482:5 12658:1 12659:1 #
0.0020156337491309194 8:2 9:1 11:1 12:2 16:1 24:2 25:1 26:1 43:2 46:1 49:2 60:1 90:1 205:3 227:1 265:2 360:1 439:2 523:2 548:2 555:2 672:1 775:1 862:2 989:1 1233:2 1285:1 1404:1 1681:1 2689:1 3453:1 3610:1 3923:1 5158:1 7501:1 9184:1 13245:3 13246:1 13247:4 13248:1 #
0.00035705609275380688 3:4 8:17 12:3 13:2 19:2 21:2 23:1 24:4 25:1 26:1 30:1 31:7 34:1 40:4 42:2 43:3 44:4 48:2 49:2 50:10 52:1 59:2 60:1 70:1 81:1 82:1 84:1 89:1 98:1 102:1 109:1 117:2 118:1 127:1 128:1 142:1 148:1 155:1 157:1 158:1 167:1 169:1 193:2 196:1 197:6 201:1 205:1 223:1 226:1 228:1 236:1 250:4 265:3 273:1 274:2 283:1 284:1 285:1 287:1 289:1 305:2 316:5 338:1 352:1 353:1 365:1 395:2 414:2 421:2 440:3 442:1 454:2 459:1 461:1 513:1 522:2 527:1 530:1 554:7 555:5 568:1 574:1 597:1 606:1 611:2 649:1 689:2 711:1 712:1 745:1 755:1 760:2 774:1 777:1 789:1 828:1 829:1 833:1 851:2 877:1 885:1 889:1 910:1 934:1 936:1 937:1 940:2 1013:3 1026:1 1047:1 1064:1 1145:1 1170:1 1184:1 1200:1 1224:3 1248:1 1288:1 1323:4 1345:1 1348:3 1410:1 1446:1 1448:2 1449:1 1480:1 1494:1 1506:1 1765:1 1770:1 1776:2 1777:1 1797:1 1824:1 1901:1 2010:1 2020:1 2110:1 2115:1 2123:1 2128:1 2195:1 2204:2 2330:1 2415:1 2420:1 2429:1 2545:3 2796:1 2798:2 2884:2 2952:1 3133:1 3335:1 3431:1 3574:1 3593:1 3642:1 3863:1 4065:2 4764:1 5963:2 6202:2 6234:2 6735:2 7913:9 8150:3 8572:1 9553:1 10343:1 11138:1 13335:19 13336:11 13337:1 13338:1 13339:3 13340:1 13341:4 13342:1 13343:1 #
-0.0010094898972838593 8:4 25:2 50:7 61:3 81:1 83:2 105:2 155:1 157:1 212:1 222:1 226:2 265:4 275:1 297:1 319:1 321:3 322:1 330:1 339:1 353:1 390:1 391:1 400:1 406:5 416:1 418:4 436:1 479:1 499:1 500:2 573:4 597:1 627:2 635:2 639:1 645:1 777:3 812:2 827:2 840:2 883:1 946:1 948:1 986:1 1113:3 1180:1 1279:1 1282:1 1342:1 1377:1 1475:1 1481:1 1654:1 1680:1 1710:1 1801:1 1803:1 1811:1 1825:1 1973:1 2154:1 2561:1 2650:1 2950:1 2951:1 3078:2 3087:2 3518:1 3558:1 4007:1 4254:1 4855:1 5017:1 5513:1 6917:1 6925:1 7399:2 7400:1 #
-0.0068162167454738371 40:1 137:1 209:1 265:1 319:1 351:1 862:1 945:1 999:1 #
0.0068162167454738371 12:1 26:1 49:1 209:1 304:1 756:1 757:1 1468:1 4722:1 #
0.0040553858577912936 3:1 5:1 6:1 7:1 8:1 12:1 13:3 14:1 15:2 16:1 17:2 19:1 20:2 25:1 26:1 51:1 190:1 209:2 224:1 273:1 289:1 305:1 411:1 606:1 777:2 1660:1 1702:1 1707:1 1868:3 2010:1 2419:1 2420:1 2715:3 5202:3 7846:1 #
0.0068162167454738371 6:1 7:2 8:1 9:1 14:1 15:1 25:1 26:1 205:1 209:1 219:1 220:1 223:1 224:1 240:1 9512:3 9513:1 9514:1 #
-0.0044108952258347959 8:1 15:1 25:1 31:4 44:1 50:4 63:2 69:1 84:1 86:5 130:3 235:1 353:2 390:1 415:1 422:3 430:1 453:1 473:1 487:5 520:1 559:1 639:1 687:1 700:1 777:4 816:2 817:1 825:1 830:2 831:1 892:1 1142:1 1205:3 1432:1 1565:3 2128:1 2155:1 2475:1 2518:1 5296:1 7854:1 9654:2 #
0.0068162167454738371 26:1 114:1 193:1 522:1 533:1 1144:1 4554:1 5018:1 9300:1 #
-0.0068162167454738371 16:3 25:1 50:1 199:1 226:1 230:1 287:2 430:3 488:2 690:1 1654:1 2195:2 2591:1 2768:2 3382:1 5166:1 5516:1 5617:1 8063:1 8064:2 8256:1 8257:1 8258:1 #
0.0068162167454738371 26:1 49:1 63:1 319:1 488:1 615:1 616:1 622:1 624:1 1149:1 1469:1 #
0.0068162167454738371 8:3 15:1 24:1 25:1 26:1 30:1 40:1 50:2 84:1 105:4 108:1 130:4 164:1 180:1 192:1 198:4 205:2 236:5 338:1 360:1 365:2 417:3 453:2 467:1 477:1 526:1 563:1 615:1 683:2 687:2 705:1 731:3 777:2 825:2 877:1 950:2 1019:1 1122:3 1322:2 1494:1 1568:2 1661:1 1815:1 2781:1 4220:5 5199:1 6407:1 8570:1 9209:1 11090:3 #
-0.0068162167454738371 49:2 161:1 236:1 265:1 321:1 330:1 421:1 501:1 3146:1 #
0.0068162167454738371 8:1 26:1 48:1 222:1 285:1 848:1 1939:1 1940:1 1941:1 #
0.0006679134502709579 6:1 8:1 16:1 23:1 24:1 25:1 26:1 28:1 33:1 40:1 41:1 43:1 51:1 90:1 235:1 265:1 287:1 316:1 415:1 435:1 455:1 604:2 605:2 672:1 688:2 751:1 877:1 897:1 947:1 948:1 949:1 950:2 1086:1 1112:1 1147:2 1178:1 1325:1 1879:1 2149:1 2150:1 2689:2 2704:1 3447:1 3772:1 4594:1 6450:1 10430:1 13090:3 13091:2 13092:2 13093:1 #
0.0014929294061033316 3:2 8:4 16:3 24:1 25:1 26:1 40:1 42:2 43:1 47:1 49:1 50:1 84:1 146:1 172:1 193:2 219:1 236:1 287:2 412:1 469:1 476:3 484:2 516:1 1008:1 1279:1 1455:4 2260:1 2496:1 3697:3 3698:2 3699:1 3700:2 3701:1 3702:1 3703:1 #
-0.00084476354453335634 1:1 6:1 8:13 12:3 13:1 14:1 16:1 18:1 21:1 24:8 25:1 40:10 42:8 43:1 46:2 47:2 48:1 49:4 50:9 52:1 60:3 61:2 63:1 83:1 86:2 89:2 92:1 114:2 117:1 118:10 126:1 131:1 137:4 142:1 143:4 147:3 148:1 152:9 153:1 155:2 168:2 185:1 198:14 205:1 207:1 209:1 212:1 222:3 227:1 253:1 265:1 269:2 274:1 284:1 286:1 287:2 289:2 299:1 300:1 302:1 312:1 331:1 375:1 394:1 412:1 416:1 418:2 426:1 436:1 459:1 463:1 464:1 469:1 477:3 479:1 484:1 501:2 534:1 550:3 572:1 574:2 597:1 598:1 605:1 618:1 629:1 632:3 655:1 666:1 671:1 678:1 687:1 705:1 711:1 717:1 731:16 743:5 745:1 750:1 768:1 860:1 874:1 875:1 885:1 892:1 904:1 913:1 923:1 955:1 966:1 989:2 990:1 1014:17 1073:1 1088:1 1090:1 1092:1 1174:1 1189:2 1195:1 1200:1 1276:1 1283:2 1303:1 1310:1 1336:1 1378:1 1411:1 1465:2 1497:1 1552:1 1588:1 1599:1 1603:1 1615:1 1654:1 1714:1 1759:1 1792:1 1815:2 1824:2 1839:1 1859:1 1865:1 1890:1 1892:2 1898:1 1954:3 1965:1 1987:1 2015:1 2035:1 2183:1 2208:1 2247:1 2251:1 2334:1 2571:1 2615:1 2643:1 2778:1 2813:1 2930:1 2968:14 3005:1 3019:1 3031:1 3056:1 3356:1 3431:1 3478:4 3494:1 3500:1 3501:2 3692:4 3702:1 3808:2 3940:2 4476:1 4535:1 4724:1 5252:1 5362:1 6433:2 6582:1 6631:1 6770:1 6961:1 7525:1 7576:1 7847:1 8014:1 8033:1 8563:1 8666:1 9096:2 9139:1 9199:1 9427:1 10154:1 10227:1 10286:1 10625:2 10753:1 10889:1 11157:1 11705:1 13537:1 13538:2 13539:1 13540:1 13541:1 13542:1 13543:1 13544:1 13545:1 13546:1 13547:1 13548:1 #
-0.0037418047677847325 3:1 8:2 16:1 24:1 25:1 40:1 492:1 550:2 554:1 630:1 637:1 688:1 755:2 759:2 774:1 830:1 851:1 998:1 1034:3 1094:1 1477:2 2900:1 2947:1 5261:1 6591:1 7016:2 7017:1 10761:1 10762:1 #
0.0068162167454738371 1:1 8:1 16:2 24:2 25:1 26:1 40:2 42:3 98:1 146:1 147:1 153:1 155:1 319:1 417:1 456:1 483:1 484:1 540:3 563:1 671:1 1130:1 1603:2 2205:3 7145:1 #
0.0068162167454738371 5:1 26:1 114:1 319:1 572:1 687:1 1095:1 1752:1 4553:1 4554:1 #
0.0068162167454738371 5:1 13:1 26:1 114:1 572:1 1752:1 4553:1 4554:1 #
0.0068162167454738371 26:1 193:1 319:1 572:1 978:1 1246:1 1425:1 1882:1 4220:1 6260:1 #
-0.0068162167454738371 24:1 40:1 46:1 319:1 351:1 516:1 999:1 1129:1 1299:1 4417:1 #
-0.0068162167454738371 193:1 212:1 447:1 522:1 755:1 930:1 2342:1 2594:1 3685:1 #
-0.0068162167454738371 46:1 300:1 394:1 406:1 493:1 1093:1 1299:1 1923:1 #
0.0068162167454738371 26:1 530:1 563:1 613:1 1026:1 1892:1 2499:1 9517:1 #
0.0068162167454738371 8:1 12:1 26:1 40:1 205:1 287:1 3710:2 7207:1 7208:1 #
0.0021942455032043324 8:2 9:2 11:1 12:1 16:1 24:1 25:1 26:1 43:1 50:2 55:1 56:1 63:1 148:2 172:3 330:1 541:1 643:1 649:1 650:1 683:2 687:1 702:1 750:1 879:3 897:2 964:2 1141:2 1411:1 1492:1 1562:1 1901:1 2325:1 3558:1 4965:2 5257:1 5987:1 6297:1 8120:2 10442:1 11779:2 11780:1 #
-0.002803734962238744 8:1 16:1 22:1 24:1 25:1 40:1 42:1 50:2 114:1 148:1 158:2 201:1 235:2 301:1 331:1 400:1 424:1 436:1 540:1 548:1 554:3 555:1 712:1 731:2 755:1 862:1 980:1 1026:2 1137:1 1293:1 1362:1 1562:1 1599:1 2123:1 2513:1 3642:3 4029:1 5481:5 7275:2 7276:1 7277:1 7278:3 7279:1 7280:2 #
-0.0068162167454738371 49:1 169:1 217:1 226:1 236:1 265:1 551:1 1106:1 4375:1 #
0.0068162167454738371 26:1 81:1 467:1 522:1 5855:1 12271:1 13733:1 13740:1 #
-7.8166505161357579e-005 1:1 5:1 6:2 7:3 8:4 9:1 12:1 13:2 16:3 19:1 20:1 22:1 24:1 25:1 49:1 50:1 51:1 57:1 60:1 81:2 314:1 411:3 418:1 460:1 462:1 468:1 518:1 950:2 962:1 971:1 1342:1 2024:1 2803:1 4776:1 10186:4 10187:1 11347:1 #
-0.00069278052495111886 1:1 5:1 8:10 11:1 12:1 13:1 16:8 19:1 21:1 25:1 31:4 40:2 42:3 50:5 84:1 85:1 92:1 105:3 108:2 117:3 125:2 128:1 130:2 143:3 145:1 146:2 153:4 155:1 163:1 164:2 168:1 176:1 193:1 200:1 205:2 212:1 213:1 218:1 219:2 221:1 224:1 228:1 230:1 237:1 296:2 316:1 390:1 400:1 412:1 435:2 452:1 454:2 455:2 462:1 476:1 513:1 516:1 527:1 563:1 604:2 605:4 650:1 688:1 696:2 712:1 774:1 815:2 817:1 960:1 971:1 1072:1 1089:1 1097:2 1173:1 1177:1 1318:3 1320:1 1468:1 1469:3 1493:1 1559:1 1566:1 1661:1 1705:1 1768:1 1813:1 1815:1 1907:1 2052:1 2133:2 2231:2 2299:2 2314:2 2315:1 2366:1 2645:2 2734:1 2735:1 2740:2 2803:1 3356:1 3406:1 4187:1 4416:2 4431:1 4476:2 5129:2 5647:1 8699:7 8778:2 8779:1 #
0.0068162167454738371 1:2 3:1 8:5 13:1 16:6 19:1 21:2 24:3 25:1 26:1 31:1 40:5 42:4 44:2 47:1 49:2 50:3 63:2 73:1 75:1 85:1 86:1 118:4 132:1 137:2 141:1 143:3 148:1 155:1 205:1 360:1 421:5 437:1 513:1 523:1 548:1 550:1 554:4 555:5 643:1 679:1 734:1 760:4 761:1 877:1 934:2 936:2 937:2 940:1 1000:6 1013:1 1070:1 1170:1 1175:1 1193:1 1237:1 1376:1 1411:1 1559:1 1585:1 1601:1 2020:1 2108:1 2156:1 2330:1 2513:4 2621:1 3691:1 4937:1 5072:1 9140:1 9141:1 9142:1 9515:1 #
-0.0028195446973131853 5:1 8:2 25:1 50:3 84:1 89:1 175:1 275:1 321:1 353:2 405:2 452:2 529:2 530:1 541:1 735:1 816:1 821:1 826:2 827:1 830:1 983:1 1142:1 1143:1 1167:1 1196:1 1236:1 1242:3 1320:1 1327:1 1355:1 1645:1 1714:1 2095:1 2184:1 2523:2 3007:3 3584:1 3722:2 3783:3 3785:2 3786:2 3787:2 3788:2 3789:1 3790:1 3792:1 3793:1 3794:1 4106:1 4107:1 4108:1 4109:1 #
0.0068162167454738371 26:1 33:1 49:1 265:1 5007:1 5008:1 5009:1 #
0.0068162167454738371 24:1 26:1 40:1 193:2 198:1 271:1 522:1 554:1 583:1 803:1 2893:1 5906:1 #
-0.0068162167454738371 8:1 11:1 12:8 16:2 24:2 25:1 40:3 42:1 44:1 49:1 61:1 111:1 126:3 127:1 198:2 215:1 217:1 224:1 522:2 541:1 548:1 554:1 555:1 711:1 733:1 755:1 862:1 877:1 948:2 952:2 989:1 1027:1 1201:1 1445:1 1568:1 1858:1 2123:1 2343:2 2546:1 2621:1 2692:1 2802:1 3848:1 6288:1 10771:1 #
-0.00098778153202715374 1:1 24:1 40:1 104:1 107:1 117:1 141:1 205:1 231:1 494:1 615:1 1112:1 2765:1 #
-0.0068162167454738371 24:1 44:1 755:1 760:1 859:1 1150:1 1518:1 2782:1 2788:1 #
-0.0068162167454738371 1:1 8:1 9:1 12:3 13:1 14:2 15:2 25:1 40:1 44:1 45:2 209:2 273:1 287:2 305:1 307:1 312:1 615:2 877:1 1010:2 1068:1 1480:1 1935:1 2010:2 13016:1 #
0.0014267167169843579 3:1 8:3 25:1 26:1 33:1 43:1 49:1 201:1 222:1 317:1 383:1 417:3 602:1 687:1 750:1 775:1 977:1 1120:2 1345:1 1446:1 1555:4 1559:1 1929:1 2276:1 2494:1 2567:1 4172:2 5064:1 5277:1 7065:1 7066:2 7067:1 7068:1 7069:1 7070:1 7071:1 7072:1 #
0.0068162167454738371 26:1 36:1 49:1 83:1 210:1 601:1 2147:1 4293:1 8238:1 12864:1 #
0.0024189095898140564 8:10 18:1 21:1 25:1 26:1 28:1 34:1 36:1 40:1 42:4 49:1 54:2 57:1 60:1 69:1 71:1 84:1 85:1 118:1 137:1 141:1 148:3 155:1 157:1 170:1 215:1 235:1 268:1 287:1 291:2 292:2 296:7 300:1 304:1 316:1 365:1 403:1 416:2 435:4 436:1 452:1 455:1 477:2 483:1 540:1 541:1 547:2 550:2 572:1 577:1 605:4 637:1 640:1 643:1 655:3 679:1 692:1 730:1 795:1 802:1 865:1 866:1 913:1 962:1 1088:1 1097:3 1109:1 1117:1 1141:2 1149:1 1181:1 1214:1 1215:1 1287:1 1305:1 1310:1 1319:1 1388:1 1641:1 1645:1 1653:2 1656:3 1815:1 1823:1 1824:2 2016:1 2020:1 2128:1 2141:1 2147:3 2218:1 2279:1 2332:1 2409:1 2643:2 2756:1 2767:1 2825:4 2844:1 2880:1 2937:1 2981:1 3022:1 3092:1 3233:2 3369:1 3424:1 3593:1 3617:1 3649:1 3792:1 3887:1 4288:1 4476:6 4492:1 4625:1 4729:1 4831:5 4832:1 4833:1 4834:2 4835:1 4836:2 4837:3 4838:1 4839:1 4840:1 4841:2 4842:1 4843:1 4844:1 4845:1 4846:1 4847:1 4848:1 4849:1 4850:1 4851:1 4852:1 4853:2 4854:1 4855:1 4856:1 4857:1 4858:1 4859:1 4860:1 4861:1 4862:1 #
0.0023200880288862646 5:1 6:1 8:2 9:2 11:1 12:2 13:1 16:1 25:1 26:1 49:1 50:1 312:1 467:1 554:3 572:1 632:1 745:3 771:1 774:1 851:2 862:2 989:1 1342:2 2499:1 10636:6 10637:1 13853:5 #
0.0068162167454738371 26:1 132:1 146:1 280:1 285:1 288:1 289:1 319:1 432:1 #
0.0056171295240668639 1:4 5:1 8:6 12:8 16:1 24:4 25:1 26:1 33:1 40:8 41:2 43:1 49:4 52:1 75:1 143:1 185:8 190:1 193:1 265:5 404:3 479:2 540:1 566:1 584:1 672:6 796:1 810:1 930:5 1026:2 1027:2 1100:1 1276:2 1371:1 1484:1 1486:2 1776:1 2005:2 2123:4 2206:2 2421:1 2496:1 2996:1 6366:1 6623:3 9270:1 12401:1 14160:8 14161:2 14162:1 14163:1 #
0.0068162167454738371 12:1 26:1 40:1 49:1 212:1 261:1 304:1 319:1 462:1 554:1 7917:1 #
0.0068162167454738371 15:1 26:1 40:1 99:1 226:1 287:1 307:1 701:1 1866:1 1874:1 1909:1 #
0.0068162167454738371 1:1 8:1 11:1 12:2 24:1 25:1 26:1 31:1 33:1 36:1 40:1 42:1 70:1 85:1 89:1 114:2 117:1 139:2 180:1 188:1 360:1 364:1 1401:1 1568:1 2299:1 4023:1 4478:1 4492:2 6174:1 7450:1 8995:1 #
-0.0053150457058652126 8:4 12:1 16:2 23:4 24:4 25:1 34:1 42:1 45:1 47:1 48:2 49:1 61:1 62:1 69:1 75:1 81:2 84:1 85:5 92:1 105:1 114:1 148:2 172:1 180:1 190:1 192:5 222:2 249:1 275:1 285:1 289:3 296:1 312:1 316:1 345:1 346:2 363:3 417:2 430:2 459:1 468:1 478:1 530:5 563:1 597:1 626:1 632:2 649:1 650:1 671:1 679:1 689:1 696:1 729:1 777:1 786:1 825:5 867:1 906:1 969:1 971:1 1034:1 1069:1 1073:1 1088:1 1202:2 1203:1 1205:1 1210:1 1215:1 1224:1 1246:1 1258:1 1310:2 1320:1 1390:1 1557:2 1567:3 1574:1 1587:1 1588:1 1589:1 1590:1 1595:1 1608:1 1775:2 1781:1 1865:1 1901:1 1935:1 1950:1 2332:1 2767:1 2898:1 2952:1 3030:1 3422:1 3547:1 4411:1 4659:1 6134:1 7576:1 8222:1 8226:1 9204:1 9205:1 13045:1 13046:1 13047:1 #
-0.0068162167454738371 1:1 6:1 8:4 12:5 24:2 25:1 31:2 33:1 40:4 44:1 48:1 50:2 63:2 90:1 104:1 107:1 111:1 116:1 118:2 125:1 128:1 141:1 145:1 155:1 193:1 205:1 219:1 236:1 273:1 287:3 304:2 360:1 455:1 462:1 477:1 485:5 494:1 530:2 540:2 555:1 568:1 601:2 645:1 687:1 771:1 774:1 964:1 994:5 1058:1 1445:1 1524:1 1555:2 1832:1 1958:1 2055:1 3227:1 3257:1 3693:1 6512:1 6514:1 9347:1 9348:1 9349:1 9350:1 9351:1 #
-0.0048488127372389106 1:1 6:1 8:2 12:3 24:3 25:1 31:1 40:1 49:1 63:1 75:1 110:2 176:1 205:1 265:1 485:3 526:1 540:3 555:1 568:1 745:1 802:1 989:1 994:2 1058:1 1524:1 1555:2 1557:1 3227:1 3257:1 3821:1 #
0.0068162167454738371 8:1 12:1 26:1 49:1 304:1 530:1 599:1 1832:1 5674:1 #
0.0068162167454738371 16:1 26:1 27:1 81:1 114:1 319:1 572:1 1646:1 1752:1 4554:1 #
0.0026619806543777521 6:1 8:1 11:2 12:2 25:1 26:1 50:1 193:1 205:1 230:2 273:1 305:1 406:2 572:1 848:6 862:2 912:1 948:1 978:3 1068:1 1293:2 1680:1 1912:2 2499:1 2584:1 2585:1 #
-0.0068162167454738371 1:1 11:1 40:1 61:1 99:1 139:1 209:1 211:1 212:1 279:1 8961:1 #
0.0068162167454738371 5:1 9:1 26:1 43:1 249:1 265:1 615:1 616:1 624:1 1412:1 #
0.0016542518734840993 8:1 25:1 26:1 42:1 49:2 50:3 81:1 85:1 190:1 209:1 275:1 424:1 440:2 462:1 467:1 476:1 488:1 547:1 550:1 601:2 692:1 813:1 1126:1 1243:1 1285:1 1366:1 1390:1 1474:3 1628:1 2050:2 2164:3 2683:1 3034:1 3146:1 3199:2 3852:2 4150:2 5963:2 8366:1 8792:4 8793:2 8794:1 8795:1 8796:1 8797:4 8798:1 #
-0.0024707639990616693 8:2 25:1 84:1 143:1 226:1 321:2 402:1 409:1 431:1 455:1 548:2 554:2 635:2 716:1 755:1 876:1 980:2 1304:1 1467:1 1475:1 1514:2 1662:1 1755:1 1797:1 3648:2 4233:1 4234:1 4235:2 4236:3 4237:1 4238:1 4239:1 4240:1 #
-0.0068162167454738371 40:1 137:1 209:1 265:1 319:1 351:1 945:1 999:2 #
0.0068162167454738371 26:1 40:1 130:1 137:1 193:1 261:1 304:1 554:1 971:1 1246:1 4084:1 7917:1 #
-0.0018658001079402686 1:1 8:2 16:3 24:1 25:1 40:2 42:3 49:1 50:2 56:1 59:1 81:1 85:2 128:1 137:2 141:1 175:1 201:1 205:2 227:1 235:1 249:1 275:1 331:1 353:1 381:1 429:1 450:1 484:2 530:1 550:1 563:1 655:1 745:1 750:1 875:1 1603:1 1814:2 1974:2 1975:1 1976:1 2460:1 2567:1 5722:1 7852:1 13932:3 13933:2 13934:1 #
-0.0029711807455944216 8:4 25:1 31:1 60:1 63:2 190:1 200:1 228:1 249:2 296:1 297:1 300:4 318:1 319:1 321:1 390:1 397:1 406:1 455:1 477:2 488:2 493:2 497:1 522:1 526:1 563:1 605:2 681:1 813:1 1068:1 1088:1 1092:1 1094:3 1142:1 1287:1 1299:1 1310:2 1565:2 1715:1 1821:1 2128:1 2397:1 2460:1 2645:2 2752:1 3088:1 3216:1 3431:1 3837:2 4865:1 #
-0.0068162167454738371 49:1 209:1 265:1 304:1 394:1 440:1 605:1 945:1 4637:1 #
-0.0068162167454738371 397:1 550:1 1299:1 2110:1 2156:1 3569:1 3805:1 10403:1 12483:1 #
0.0068162167454738371 26:1 50:1 304:1 454:1 597:1 948:1 2672:1 5532:1 5761:1 5764:1 #
-0.0068162167454738371 1:1 31:1 49:1 110:1 222:1 876:1 2422:1 4413:1 5629:1 #
0.001490367604269045 1:1 6:1 8:8 12:6 13:1 21:1 23:3 24:7 25:1 26:1 39:1 42:2 44:2 46:1 47:1 48:2 49:3 50:7 70:1 81:1 85:3 118:1 137:1 142:1 143:1 148:2 151:1 158:1 168:1 188:1 190:2 193:1 209:1 222:1 251:1 283:1 287:3 305:1 306:1 321:2 331:1 333:1 390:3 395:1 405:1 406:9 436:3 442:1 454:1 455:2 467:2 522:2 530:2 563:1 601:1 632:2 745:1 813:1 885:1 895:3 934:2 977:1 980:1 1088:2 1093:1 1094:1 1189:1 1202:1 1210:1 1211:1 1215:1 1233:1 1310:1 1323:1 1388:1 1390:1 1426:1 1475:1 1480:1 1542:1 1552:1 1558:1 1566:1 1574:1 1626:1 1774:1 1784:1 1814:1 1879:1 1923:9 1931:1 2017:1 2199:2 2316:1 2460:2 2500:1 2938:1 3041:1 3146:4 3243:4 3529:1 3574:1 3642:1 3644:1 4270:1 4564:1 4680:4 4683:1 4684:1 4686:2 4822:2 5024:1 5025:1 5026:2 5027:7 5028:1 5029:2 5030:1 5031:3 5032:1 5033:1 5034:1 5035:1 5036:1 5037:1 5038:1 5039:1 5040:1 5041:1 5042:1 5043:1 5044:1 5045:1 5046:1 5047:1 #
0.0057564245578285841 1:4 3:1 5:1 8:8 12:2 16:4 21:2 24:2 25:1 26:1 31:2 40:3 49:2 55:1 61:1 68:1 69:3 75:1 84:1 85:1 102:1 114:2 139:1 143:1 169:1 196:2 200:1 212:1 215:1 232:1 237:2 250:1 251:1 265:2 273:1 275:2 360:1 418:1 436:1 522:2 526:2 556:1 573:1 574:1 597:2 601:1 653:1 687:1 688:1 712:2 739:1 740:1 761:1 796:1 830:1 832:1 862:2 948:1 985:1 1026:1 1027:1 1086:2 1154:1 1204:4 1211:1 1261:1 1285:1 1305:1 1345:1 1348:1 1388:1 1446:1 1469:1 1645:1 1732:1 1740:1 1756:1 1801:1 1912:1 1929:2 1977:1 2017:1 2063:1 2251:1 2796:1 3250:1 3741:1 3863:1 3959:1 4185:1 6991:7 7107:2 7219:1 8565:1 9744:1 12015:1 13808:3 #
0.0035421110574774409 8:2 16:1 24:1 25:1 26:1 27:1 31:1 40:1 52:1 63:1 68:2 85:1 193:1 247:1 467:1 485:2 520:2 521:1 522:1 523:1 636:1 643:1 763:1 795:1 796:1 797:1 #
0.0068162167454738371 26:1 30:1 31:1 143:1 319:1 501:1 1110:1 1173:1 3150:1 6246:1 6304:1 #
0.0068162167454738371 26:1 43:1 319:1 550:1 738:1 743:1 847:1 3610:2 3923:1 8033:1 #
0.0068162167454738371 26:1 209:1 219:1 285:1 2226:1 3301:1 3789:1 5335:1 5336:1 #
0.0068162167454738371 23:1 26:1 285:1 1329:1 2422:1 5629:2 5631:1 5633:1 #
0.0068162167454738371 6:1 26:1 63:1 293:1 319:1 386:1 622:1 2448:1 2678:1 2679:1 5386:1 #
0.0068162167454738371 26:1 56:1 319:1 530:1 635:1 971:1 2422:1 2545:1 5629:1 #
-0.0068162167454738371 49:4 50:1 265:1 353:1 522:1 1641:2 4417:1 5369:2 #
-0.0019277399244889291 8:1 24:2 25:1 40:2 45:1 49:1 50:2 61:1 63:1 69:1 169:1 226:1 236:1 285:3 287:1 300:2 360:1 363:1 390:1 397:2 406:8 455:1 482:1 488:2 501:3 522:1 526:3 536:1 679:1 734:1 815:1 913:1 940:1 1277:1 1299:1 1320:1 1385:2 1391:2 1395:1 1404:4 1410:1 1464:1 1648:1 1678:1 2158:1 2278:1 2555:1 3544:1 3600:1 4577:2 4578:1 4579:1 4580:1 4581:1 4582:1 4583:1 4584:1 4585:1 #
-0.0068162167454738371 50:1 296:1 319:1 339:1 463:1 491:1 615:1 999:1 1469:1 4485:1 10930:1 #
-0.0025702609080028604 50:1 104:1 114:2 227:2 236:1 265:1 330:1 353:1 454:1 558:1 999:1 1041:1 1073:1 1566:1 1584:1 4417:1 12761:1 13626:1 14347:1 14348:1 14349:2 14350:1 14351:1 14352:3 14353:1 14354:1 #
0.0068162167454738371 1:1 8:1 12:1 16:3 24:1 25:1 26:1 31:1 40:2 43:1 89:1 100:1 132:1 146:1 193:1 227:1 345:1 440:1 549:1 550:3 554:1 729:1 824:1 877:1 892:1 971:2 1019:1 1130:1 1390:1 1524:1 2964:1 7325:1 7861:1 9976:2 9977:1 #
0.0012789322906672203 16:3 24:1 25:1 26:1 40:1 46:1 49:4 56:1 235:2 265:1 275:2 305:1 360:1 364:1 436:4 480:1 488:1 551:1 601:1 745:2 749:1 1034:2 1068:1 1103:1 1312:1 1425:1 2212:2 2523:1 2781:1 3728:1 4149:1 5142:1 5178:1 5778:1 9468:1 11128:2 14247:5 14248:1 14249:1 14250:1 #
0.0045831950965273902 1:2 8:7 16:3 21:1 24:1 25:1 26:1 31:2 40:1 50:2 57:1 60:2 71:2 75:1 81:1 85:1 90:1 110:1 117:1 128:1 193:1 198:2 209:1 222:1 234:2 351:1 353:2 365:1 404:1 422:2 424:1 476:2 480:2 487:1 491:3 513:2 522:2 527:1 533:1 534:1 550:1 551:3 640:1 679:1 721:1 729:2 731:2 737:1 777:1 833:1 972:1 1034:5 1088:1 1147:1 1160:1 1171:1 1203:1 1248:1 1290:1 1293:1 1303:1 1320:1 1380:1 1470:1 1486:2 1588:1 1661:1 1670:1 1909:1 1962:1 2026:1 2039:1 2217:1 2480:1 2881:1 2933:1 3028:1 3466:1 3478:1 3733:1 3826:1 3865:1 3950:1 3999:1 4124:3 4149:1 4394:1 4509:1 4937:1 5306:1 5624:4 5625:4 6880:1 7343:1 7404:1 7427:3 10134:2 10135:1 10136:1 10137:1 10138:1 #
0.0068162167454738371 8:1 12:1 24:1 26:1 49:1 530:1 597:1 636:1 743:1 1008:1 3610:1 5469:1 6486:1 #
-0.0028755536201355162 8:1 12:1 19:2 25:1 46:1 49:1 50:2 157:1 227:1 304:2 306:1 312:1 316:1 319:1 411:1 424:4 431:2 435:2 462:2 499:1 679:1 687:1 692:1 712:1 735:4 813:2 816:1 855:1 980:1 983:1 989:1 1089:1 1112:1 1143:1 1149:1 1173:1 1227:1 1230:2 1261:3 1279:1 1285:1 1695:1 1797:1 1805:1 1832:1 1908:1 2672:3 2972:1 3092:2 3360:1 3424:1 4308:1 4424:2 5312:1 7758:1 10271:3 11604:4 11605:1 11606:1 11607:1 #
-0.0032526062752148374 8:3 25:1 57:1 227:1 404:1 430:1 499:1 550:1 726:1 1014:1 1365:1 1423:1 1425:4 1472:5 1641:1 1645:2 1777:1 2222:1 2393:1 3832:1 5655:1 5700:1 5930:1 6057:2 6914:2 12188:1 12189:1 #
-0.0028296208789335619 1:1 5:1 8:5 24:4 25:1 31:5 40:4 54:1 55:1 61:1 63:1 81:1 85:2 86:1 110:4 128:1 143:2 180:1 193:2 201:1 205:1 231:1 249:5 250:1 269:1 273:2 305:1 427:1 462:1 467:1 526:1 527:1 530:2 636:1 688:1 796:1 862:1 921:1 934:1 1120:1 1246:2 1293:1 1565:1 1660:1 1854:1 1912:1 2024:2 2037:1 2065:1 2110:1 2377:1 2421:1 2792:5 2793:1 2795:1 3007:1 3030:1 5930:1 6464:1 8466:1 9144:1 10322:1 10323:1 #
0.0068162167454738371 26:1 1484:1 1679:1 2330:1 2499:1 2538:1 2892:1 5169:1 12468:1 #
-0.00077840787880992192 1:1 3:2 8:5 13:1 16:5 25:1 34:1 49:2 50:1 61:1 84:1 128:1 145:1 163:1 205:1 209:1 218:1 222:1 232:1 235:1 250:2 289:4 305:1 316:1 331:1 338:1 364:1 438:1 463:1 464:1 513:1 524:1 551:1 563:1 639:1 653:1 716:1 744:1 761:1 762:1 774:1 796:1 797:1 832:1 860:3 971:1 1060:1 1089:2 1097:1 1101:1 1211:4 1224:1 1288:1 1320:1 1518:2 1559:2 1585:1 1645:4 1661:3 1767:1 1792:1 1814:2 1832:1 1857:1 1862:1 1905:1 2013:1 2017:1 2133:2 2330:1 2544:2 2555:1 2579:2 2801:3 3121:2 3283:2 3660:2 3745:1 3857:6 3940:1 4242:1 5410:1 5692:2 5922:1 6146:1 6229:5 6230:1 6231:4 6232:1 6233:1 6234:1 6235:1 6236:1 6237:1 6238:1 6239:1 #
-0.0068162167454738371 1:1 6:1 7:1 8:3 11:1 12:2 13:1 15:1 16:2 23:1 24:1 25:1 28:2 51:1 63:1 69:1 134:1 143:1 163:1 180:1 205:2 247:1 287:4 404:1 405:1 418:1 477:1 604:2 605:1 619:1 687:1 688:1 1086:1 1087:1 1322:1 1325:1 2321:1 2322:1 2323:1 2558:1 2559:1 2560:1 12066:3 12067:1 #
0.0066188734493476545 6:4 8:1 9:1 11:3 12:2 13:1 16:1 25:1 26:1 33:1 40:1 41:1 45:5 46:1 49:2 50:4 81:3 127:1 219:1 244:3 287:1 304:1 305:1 312:1 364:1 440:1 530:1 774:1 777:1 877:1 1198:1 1339:2 1445:1 1508:1 1669:1 1795:1 1824:1 2156:1 2487:2 2511:1 2512:2 #
-0.0068162167454738371 50:1 162:1 319:1 397:1 419:1 1127:1 1299:1 1439:1 3261:1 12483:1 #
-0.0030152160203246389 1:1 6:2 8:3 9:2 11:3 12:4 13:2 14:1 15:1 16:1 25:1 33:2 40:1 41:4 42:1 43:3 44:2 45:8 46:1 49:4 50:2 51:1 60:1 61:1 100:1 126:3 127:1 128:1 205:1 209:1 220:1 222:1 223:1 224:2 287:1 305:1 307:1 312:1 364:1 395:1 653:1 952:1 1189:1 1201:1 1445:3 1613:1 1839:1 1859:1 1977:1 5281:1 9574:1 13123:4 13124:1 #
-0.0068162167454738371 1:1 40:1 47:1 137:1 692:1 851:1 852:1 5587:1 #
0.0015034067880045814 8:2 12:3 24:3 25:1 26:1 49:4 56:2 126:1 285:1 287:2 345:1 346:2 454:1 568:1 745:1 948:1 1265:1 1268:1 1557:1 1567:2 1774:1 1832:1 1909:2 2809:1 3178:1 3228:1 3257:1 6874:3 6875:4 6876:1 #
-0.0068162167454738371 1:1 40:2 42:1 99:1 101:1 10492:1 #
0.0068162167454738371 26:1 46:1 193:1 287:1 474:1 530:1 745:1 5560:1 5561:1 5568:1 #
0.0068162167454738371 26:1 57:1 287:1 319:1 599:1 689:1 1088:1 2927:1 4393:1 6007:1 #
0.0066398982045634677 3:3 8:4 15:2 16:2 19:1 24:1 25:1 26:1 31:1 42:2 46:1 49:1 50:1 60:3 61:1 137:1 143:1 177:4 190:1 205:1 209:1 296:2 321:1 452:1 488:1 601:1 685:1 689:1 876:1 940:1 985:1 1285:1 1287:1 1348:1 1421:1 1469:2 2111:1 2523:1 3616:1 4513:4 7008:4 12760:1 12761:1 12762:1 #
0.0068162167454738371 26:1 188:1 522:1 530:1 2316:1 4165:1 4973:1 8114:1 12150:1 #
-0.0014787349561681351 40:1 44:1 100:1 217:1 226:1 755:2 2263:1 3965:1 #
-0.00062977013666763054 1:1 3:1 8:5 16:1 18:1 21:1 24:7 25:1 31:5 34:1 40:6 47:1 49:3 60:3 86:1 89:1 98:1 117:2 118:2 127:1 155:1 193:1 197:2 200:1 205:2 227:1 237:1 300:1 330:2 363:1 422:1 424:1 551:1 597:1 630:1 637:1 689:1 721:1 737:3 745:1 767:1 768:1 910:1 935:1 941:1 1103:1 1159:1 1231:1 1243:1 1277:1 1283:1 1312:1 1606:1 1675:1 1684:1 2378:1 2548:1 2781:3 2796:2 2928:1 3482:1 3791:1 4243:1 4513:4 7943:1 8099:1 12760:1 12775:4 12776:1 12777:1 #
-0.0068162167454738371 5:1 8:3 22:1 24:1 25:1 31:1 40:2 43:1 46:2 49:1 50:1 81:2 83:1 86:1 353:1 430:1 436:2 446:1 568:1 977:1 1034:1 1205:1 1342:1 1423:1 1472:2 1481:1 1636:1 1751:1 1879:1 2219:1 2251:1 3093:1 3254:1 3800:1 5419:2 5860:1 6164:1 6252:3 8042:1 9744:3 10246:1 13071:1 13403:1 13404:1 13405:1 #
-0.0068162167454738371 40:1 46:1 137:1 319:1 351:1 412:1 999:2 1299:1 4417:1 #
-0.0030247621582822695 8:1 25:1 60:3 70:8 114:1 171:1 222:2 315:1 417:1 430:1 455:7 487:1 563:1 568:1 572:1 597:1 735:1 971:1 1026:1 1108:1 1215:1 1320:1 1329:1 1502:3 1719:1 1726:1 1797:1 1842:1 2274:1 2460:1 2499:2 2897:1 2961:1 4621:1 6847:1 6899:1 8541:1 8893:2 8895:2 8896:1 8898:1 8899:1 #
0.0010516576510143161 6:2 8:3 11:5 12:4 13:1 14:1 15:2 16:3 25:1 26:1 33:3 40:1 41:3 42:1 43:3 44:1 45:9 46:1 49:3 50:4 51:1 56:1 60:1 61:2 81:2 100:1 126:2 127:2 128:1 131:1 180:3 209:1 220:1 223:1 224:5 287:1 304:1 305:1 307:1 395:1 419:1 440:2 530:1 584:1 774:1 791:1 825:1 952:1 1189:1 1201:1 1445:2 1613:1 1669:1 1795:2 1824:1 1833:1 1839:1 1938:1 1975:1 2110:1 2511:1 2911:1 2968:2 2996:1 3633:1 3999:1 5281:1 9572:4 9573:1 9574:1 9575:1 9576:1 9577:1 9578:1 #
-0.0016472506522510894 1:1 6:3 8:3 9:1 11:2 12:2 14:1 15:1 16:3 17:1 25:1 40:1 41:2 44:1 45:4 46:1 49:1 50:2 51:1 126:1 127:2 180:1 216:1 220:1 223:1 224:2 279:1 287:1 304:1 312:1 419:1 440:1 494:5 524:1 584:1 671:1 931:1 1445:1 1824:1 2047:3 9315:5 9316:1 9317:1 #
-0.0068162167454738371 8:1 25:1 49:1 103:1 193:1 227:1 265:1 406:2 436:1 520:1 558:1 809:1 877:1 1129:1 1152:1 1153:1 1265:2 1354:1 1404:1 2364:3 #
0.0060588752070865268 26:1 40:1 99:1 205:2 287:1 487:1 1014:1 1866:1 1873:1 13780:1 #
0.00091925567875453577 8:2 24:4 25:1 26:1 31:1 40:4 89:1 102:1 110:2 111:1 117:1 133:1 143:2 145:1 176:1 230:1 250:1 436:1 476:1 492:1 522:2 524:1 526:1 534:1 721:1 819:1 1026:1 1106:1 1318:1 2483:1 3513:1 3813:1 7695:1 11125:3 11126:1 12355:1 12490:3 12491:1 12492:1 12493:1 #
0.0068162167454738371 24:1 26:1 40:1 205:1 774:1 2615:1 2630:1 3559:2 7015:1 #
0.0068162167454738371 26:1 40:1 99:1 285:1 998:1 3301:1 3789:1 5335:1 5336:1 5337:1 #
-0.0022237637525876759 1:1 3:1 8:2 12:2 16:2 21:2 23:2 24:4 25:1 40:5 71:1 75:1 81:1 98:2 141:1 143:1 148:1 155:1 157:1 456:2 498:1 597:1 649:1 650:1 870:1 946:1 1177:1 1242:1 1276:3 1849:1 1901:1 2566:1 6105:1 10433:1 12171:4 12172:1 12173:1 12174:1 #
-0.0032531715793707896 8:4 19:1 24:1 25:1 49:1 50:3 60:1 69:1 70:2 81:4 84:1 143:1 145:1 165:1 169:1 193:1 316:1 319:1 345:1 422:1 550:1 563:1 597:1 601:1 619:1 636:2 643:1 755:1 827:2 834:1 851:3 869:1 983:1 1088:1 1094:1 1181:1 1229:1 1243:1 1393:1 1426:1 1458:4 1465:1 1474:1 1498:3 1500:2 1508:1 1567:1 1588:1 1719:1 1908:1 2242:1 2812:1 2996:1 7448:2 7502:1 7917:3 8424:1 9525:1 12260:1 14276:1 14388:1 #
-0.0068162167454738371 40:1 137:1 209:1 319:1 351:1 862:1 945:1 999:1 1299:1 #
0.0068162167454738371 12:1 26:1 180:1 876:1 1839:1 6215:1 6217:1 6468:1 #
-0.0068162167454738371 84:1 190:1 236:1 455:1 513:1 848:1 1026:1 1299:1 6818:1 #
-0.0068162167454738371 49:1 236:1 265:1 282:1 304:1 1071:1 2176:1 #
0.0068162167454738371 26:1 27:1 90:1 287:1 1446:1 6246:1 #
-0.0029553145526102793 1:1 5:1 8:2 12:1 13:1 21:3 24:5 25:1 34:2 40:5 46:1 47:1 50:1 54:2 69:2 75:2 85:3 86:1 100:9 117:3 118:1 128:1 205:6 231:1 273:1 279:1 285:1 287:1 305:1 450:1 581:1 643:1 716:1 796:1 1596:1 1824:1 2131:3 2231:1 2251:4 3416:5 4323:1 4324:1 #
-0.0055764145939171056 1:1 6:1 8:8 9:2 10:1 11:1 12:3 16:3 24:3 25:1 33:1 40:2 42:1 44:1 46:1 50:2 71:1 81:1 86:1 100:1 117:1 128:1 143:1 148:1 155:1 172:1 205:4 212:1 222:1 234:1 235:1 265:1 289:1 410:1 439:1 462:1 479:1 522:1 523:1 530:2 548:3 554:1 555:2 568:1 602:1 619:1 649:1 650:1 745:1 749:1 761:1 802:1 830:1 851:1 862:2 875:1 897:2 981:1 989:1 1019:1 1026:1 1310:1 1561:1 1621:1 1803:1 1822:1 1853:1 1858:1 1899:1 1901:1 2154:1 2163:1 2251:1 2274:1 2499:1 2513:1 2528:1 2708:1 3572:1 3681:1 3702:1 3886:1 4452:1 7107:2 7847:1 8515:1 8661:8 8662:1 8663:1 8664:1 8665:1 8666:1 8667:1 8668:2 8669:1 8670:1 8671:1 8672:2 8673:1 #
0.0068162167454738371 24:1 26:1 50:2 205:1 321:1 353:1 692:1 1500:1 1508:1 1513:1 4165:1 4807:1 12330:1 #
0.0068162167454738371 5:1 26:1 180:1 406:1 764:1 999:1 1524:1 1907:1 3043:1 #
0.0068162167454738371 26:1 46:1 49:1 50:2 353:2 431:1 572:1 974:1 1014:1 1112:1 1494:1 3320:1 3991:1 #
0.0068162167454738371 26:1 146:1 285:1 619:1 977:1 1929:1 2797:1 6214:1 6215:1 11413:1 #
-0.0068162167454738371 60:1 304:1 321:1 406:1 1073:1 1200:1 1299:1 1923:1 3232:1 #
0.0068162167454738371 26:1 304:1 305:1 319:1 501:1 1834:1 3821:1 6246:1 #
-0.0012436208685558559 1:2 3:1 8:6 10:1 16:4 21:1 24:4 25:1 31:5 34:1 40:7 42:4 43:1 47:2 49:4 50:3 75:1 81:1 84:2 85:1 118:2 137:6 141:1 143:2 148:1 151:1 152:1 155:1 157:1 166:1 180:4 190:2 193:1 222:1 235:1 250:1 258:2 266:2 269:2 317:1 352:2 360:1 416:1 456:2 477:1 479:2 483:2 488:1 509:1 513:1 550:1 563:2 640:1 687:1 688:1 805:1 830:1 876:2 913:1 994:1 1068:1 1089:1 1143:1 1147:1 1200:1 1276:1 1378:1 1467:1 1524:2 1567:2 1579:1 1669:1 1901:1 2055:2 2144:1 2165:2 2548:1 2908:1 3033:1 3253:1 3626:1 4454:1 4965:1 5086:1 5139:7 5140:3 5141:1 5142:1 5143:1 5144:2 #
-0.0026413122950670774 1:3 6:4 8:7 11:2 12:4 16:2 24:7 25:1 40:6 42:3 43:1 44:1 46:4 50:1 52:1 56:2 83:1 107:1 111:1 128:1 143:1 145:2 164:1 189:1 205:1 231:3 312:1 335:2 338:1 360:1 392:2 435:1 452:1 455:1 456:1 462:1 479:1 494:1 513:1 551:1 601:1 604:1 605:1 716:1 733:1 751:1 862:3 971:2 977:4 1026:3 1244:1 1293:1 1313:1 1342:1 1566:1 1596:1 1781:1 1813:1 1815:1 1858:1 1940:1 2073:12 2074:1 2077:1 2251:1 3221:1 3444:1 3806:1 3848:1 4466:1 6227:6 6409:1 #
-0.0068162167454738371 49:2 236:1 265:1 319:1 360:1 406:1 598:1 848:1 1091:1 5100:1 #
0.00027305064965933593 5:1 8:3 21:1 24:1 25:1 26:1 30:2 46:1 47:1 49:1 51:1 90:2 146:1 180:1 193:5 205:1 212:1 217:1 224:1 364:1 479:6 499:1 526:1 548:11 851:1 931:1 934:1 968:1 1070:1 1074:1 1446:5 4351:1 13866:1 13867:1 13868:1 13869:1 13870:1 #
0.0068162167454738371 1:2 6:1 8:3 11:1 12:2 16:1 25:1 26:1 43:2 46:2 100:2 145:1 146:1 153:1 155:1 312:1 429:1 488:1 544:1 989:2 1293:1 1318:1 1660:1 1679:1 1890:1 1955:1 2330:1 5116:6 #
-0.0045820104653024434 15:1 25:1 146:1 430:1 487:1 729:3 1274:1 1315:1 1472:1 1502:1 2211:1 2891:1 2985:1 4185:1 5860:2 6104:1 6217:5 7399:1 10820:1 13207:1 14020:1 14021:1 14022:1 14023:1 14024:1 14025:1 14026:1 14027:1 14028:1 14029:1 14030:1 14031:1 #
-0.0068162167454738371 49:1 234:1 236:1 265:1 406:1 442:1 1106:1 2796:1 4251:1 14569:1 #
-0.0068162167454738371 319:1 597:1 921:1 1229:1 1299:1 1399:1 3356:1 7977:1 #
-0.0068162167454738371 49:1 209:1 304:1 394:1 440:1 605:1 945:1 1299:1 4637:1 #
0.0017359251802014758 12:1 26:1 40:1 205:1 212:1 287:1 2195:2 2448:1 5330:1 5386:1 #
0.0068162167454738371 12:1 24:1 26:1 63:1 291:1 292:1 671:1 813:1 1092:1 4313:1 4336:1 #
0.0068162167454738371 26:1 56:1 354:1 817:1 1290:1 1403:1 4313:1 4336:1 #
0.0068162167454738371 8:1 21:1 25:1 26:1 42:1 47:1 49:1 119:1 128:1 201:1 205:2 239:3 351:1 395:1 750:1 759:1 830:1 862:1 998:1 1293:1 1402:2 1791:1 1839:1 2028:2 4439:1 10550:3 10551:1 10552:2 10553:1 10554:1 #
0.00034810145918563447 6:1 8:2 16:3 22:1 24:3 25:1 26:1 31:4 42:2 50:2 60:1 63:1 69:1 85:1 102:1 111:1 118:1 143:2 226:1 227:1 240:1 285:1 303:1 305:1 312:1 345:5 353:2 363:1 430:1 436:2 480:2 488:1 530:2 551:2 711:1 745:1 810:1 813:1 930:1 989:1 1052:1 1056:1 1064:1 1089:2 1231:1 1287:1 1292:2 1323:1 1424:1 1493:2 1522:1 1523:1 1557:3 1567:7 1588:2 1639:1 1669:1 1777:2 1784:1 1815:1 1888:1 1958:1 1969:1 2226:1 2281:1 2459:1 2615:1 2967:4 2997:1 3034:1 3127:1 4208:1 4222:1 4686:1 5822:1 6877:2 7039:1 7250:1 10202:1 10917:1 13131:4 13582:1 14201:1 14202:1 14203:1 14204:1 14205:1 14206:1 14207:1 14208:1 #
0.0040326736520450938 6:2 8:2 11:1 12:1 15:1 25:1 26:1 27:2 40:1 44:4 50:1 75:1 161:1 185:1 205:1 227:1 304:1 307:2 417:2 636:1 1068:4 1522:1 1832:1 1909:2 2010:1 2317:3 2993:1 3475:3 3476:2 3477:1 4013:2 6662:1 6690:1 8687:1 12574:1 #
0.0068162167454738371 6:2 8:2 11:1 12:1 25:1 26:1 43:1 45:5 50:1 100:1 126:1 143:1 169:1 180:1 205:1 226:1 287:1 296:1 304:1 460:1 952:3 1105:1 1824:1 2284:1 2286:4 2287:1 #
-0.0068162167454738371 8:2 15:1 16:1 25:1 33:1 43:1 89:1 163:1 168:2 180:1 198:1 222:1 404:1 430:2 446:1 583:3 603:1 687:1 688:1 750:1 1026:1 1027:1 1088:2 1172:1 1181:1 1930:1 2160:1 2341:1 2391:1 2459:1 2724:2 2947:1 3482:1 4521:1 4971:1 5992:1 6504:1 6505:1 6506:1 6507:1 #
-0.0029647124149882595 8:3 25:1 27:1 30:1 79:1 90:1 155:1 159:1 205:1 226:2 227:1 306:2 314:2 367:1 430:1 480:1 486:3 490:1 502:1 503:5 508:3 519:1 636:1 847:1 907:1 1064:1 1194:1 1367:1 1371:1 1423:2 1849:1 1945:1 1987:1 2327:2 2366:1 2785:1 4509:3 4674:1 5684:1 5685:1 5686:1 5687:4 5688:2 5689:1 5690:1 5691:1 5692:1 5693:1 5694:1 5695:1 5696:1 5697:1 #
0.0068162167454738371 24:1 26:1 28:1 40:1 89:1 205:1 285:1 1981:1 1982:1 1983:1 #
0.0068162167454738371 12:1 13:1 26:1 99:1 563:1 572:1 1892:1 9517:2 #
-0.0012817027153331363 3:2 8:3 16:1 19:2 25:1 49:1 50:1 112:1 190:1 198:2 227:2 311:1 314:2 492:1 494:1 524:1 530:1 568:1 636:1 745:1 755:1 836:1 886:3 1028:1 1061:1 1248:1 1458:5 2039:3 2086:4 2212:1 2916:1 2967:1 3858:3 6231:1 13267:1 13268:1 #
-0.0068162167454738371 49:2 50:1 198:1 210:1 236:1 265:1 353:1 360:1 406:1 2967:1 #
-0.0068162167454738371 49:1 161:1 236:1 265:1 304:1 353:1 1071:1 1493:1 #
0.0012134129733736652 26:1 134:1 285:1 550:1 1005:1 1824:1 1825:1 2054:1 6246:1 9777:1 #
0.0014804809252643354 8:4 16:2 25:1 26:1 42:3 49:2 50:2 84:2 117:5 137:4 143:2 146:3 157:1 219:3 251:1 330:2 483:1 488:2 550:2 572:2 602:2 627:2 729:8 745:2 813:1 834:1 883:1 1279:1 1330:1 1412:4 1413:4 1414:3 1415:1 1416:3 1417:1 1418:1 1419:1 1420:1 1421:3 1422:1 1423:1 1424:1 1425:2 1426:1 #
-0.0036896671323746401 8:3 25:1 50:2 81:1 125:1 151:1 230:1 287:3 353:2 501:1 520:1 530:1 735:2 777:2 812:2 816:1 826:5 827:1 1109:1 1142:1 1147:1 1196:2 1239:1 1279:2 1342:1 1400:1 1402:4 1592:1 1719:1 1839:1 1891:1 2026:1 2106:1 2523:2 2812:1 2839:1 3087:1 3584:1 4854:1 5472:1 5756:1 6791:1 7393:4 8994:1 #
-0.0033569968582780885 1:1 6:1 8:2 12:5 13:2 25:1 58:1 60:1 61:1 89:1 155:3 213:1 228:1 284:1 287:2 306:1 312:1 406:5 471:1 493:1 639:2 657:1 700:2 719:2 877:2 1218:1 1367:3 1423:1 1731:1 1813:1 1915:2 1936:1 1964:1 2198:1 2433:1 3206:1 3207:1 5665:2 6807:1 6857:4 6858:1 #
-0.0007364045682363142 8:4 16:2 24:1 25:1 47:1 83:1 112:1 188:2 193:1 197:1 222:3 287:1 316:1 395:1 417:1 430:2 436:1 446:3 464:4 488:1 550:1 616:1 639:1 719:1 883:1 1288:1 1393:1 1411:1 1423:1 1470:2 1477:1 1482:3 1691:1 1842:1 1915:1 1952:1 2198:2 2234:1 2329:2 2335:1 2578:1 2985:1 4522:1 5622:1 6147:1 6850:3 10505:1 13387:1 #
-0.0032684005790952213 8:2 25:1 50:1 61:1 71:2 79:1 108:1 193:3 201:1 205:2 209:1 219:1 263:1 287:1 417:2 430:2 441:1 447:1 450:1 474:1 485:1 1089:1 1233:1 1966:1 1987:1 2219:1 2266:2 2342:1 2348:1 2386:2 2387:2 2735:1 3461:1 5203:2 5473:1 6616:3 6617:1 6618:1 #
0.00053834341849530812 8:6 16:7 24:4 25:1 26:1 31:2 34:1 36:1 40:4 42:1 49:1 50:2 54:1 60:1 69:2 85:2 86:1 90:1 111:1 117:3 118:2 128:1 129:1 145:2 153:1 158:1 164:1 190:1 193:2 212:1 215:1 231:1 232:3 273:1 305:2 429:1 467:1 476:1 484:1 526:2 530:1 598:1 623:1 627:1 647:1 653:1 687:1 745:2 750:1 812:1 830:1 862:1 934:1 1075:1 1077:5 1285:1 1423:2 1572:1 1958:1 1963:1 2036:2 2052:1 2093:1 2154:1 2251:1 2288:1 2391:1 2424:1 3049:1 3127:2 5824:1 6039:1 7512:1 7797:1 9611:1 9731:1 9952:3 9953:3 9954:1 9955:7 10440:1 12867:1 13990:1 13991:1 13992:1 #
0.0068162167454738371 8:3 12:1 14:1 16:1 24:5 25:1 26:1 27:1 31:4 34:1 40:6 51:1 98:1 100:1 107:1 110:2 119:1 125:1 143:1 145:2 146:1 155:1 163:1 209:1 219:1 225:1 314:1 392:1 456:1 461:1 494:1 516:1 550:1 568:3 631:1 636:1 774:1 930:2 1058:1 1077:3 1244:1 1313:1 1433:1 2391:2 2500:1 2735:1 4252:1 5658:1 #
0.0010884509500223001 8:4 15:2 21:1 25:1 26:1 50:2 69:1 81:1 168:2 172:1 315:1 319:1 464:5 572:2 619:1 759:1 834:1 869:1 877:1 946:1 978:2 1014:2 1054:1 1320:2 1954:4 1973:3 2672:5 2761:1 2968:1 3080:1 3621:1 3800:1 3857:1 3960:1 5471:1 6236:2 6417:1 6448:1 7142:7 9708:1 11000:1 11001:1 11002:1 #
0.00046936549352969993 8:1 9:1 25:1 26:1 49:1 50:1 56:1 130:3 171:1 285:2 316:1 359:1 406:2 436:1 501:1 511:1 530:1 601:1 606:1 816:1 1089:2 1093:1 1133:1 1142:1 1215:1 1287:1 1360:1 1411:2 1722:1 1903:1 2274:1 2422:1 3054:2 3146:1 3150:1 4686:1 4692:1 5026:1 6261:2 6853:1 9273:3 9274:2 9275:4 9276:1 9277:2 #
0.0024167958064325334 8:2 10:2 15:1 16:1 25:1 26:1 50:1 86:1 193:1 209:1 268:1 287:1 300:1 304:1 371:1 406:4 460:1 525:1 613:4 832:1 973:1 983:1 1054:1 1089:2 1857:1 1858:2 2477:1 2672:1 2839:1 3022:1 3101:1 3844:1 4182:1 5429:1 6468:1 7249:1 9022:5 9023:1 9024:3 9025:1 #
0.0068162167454738371 8:2 10:1 12:2 23:1 24:2 25:2 26:1 42:1 47:1 50:1 108:1 137:1 145:1 147:1 151:1 212:2 215:1 230:1 265:1 321:1 352:1 390:2 400:1 406:5 430:1 436:2 488:1 616:1 692:1 745:1 869:1 1089:2 1098:1 1174:1 1310:1 1513:3 1777:1 2005:1 2494:1 2898:1 4048:1 4686:3 4714:1 7576:1 9891:2 9892:3 9893:1 9894:1 #
-0.0068162167454738371 1:1 8:1 25:1 30:1 31:2 40:1 110:2 145:1 501:1 555:1 597:1 763:1 1068:1 1244:2 1313:2 2164:1 3644:1 9124:2 9125:1 9126:1 9127:1 #
-0.0028211074800211992 8:3 16:2 25:1 49:1 50:2 205:1 265:1 283:1 319:1 353:1 404:1 440:1 548:2 554:1 745:1 755:1 760:1 1239:1 1329:1 1455:1 1645:1 1834:1 1858:1 2204:1 2672:1 2688:1 2767:3 3101:1 3247:1 3855:2 4047:1 4048:2 4469:1 4635:1 7406:1 8758:1 13513:4 14229:1 14230:1 14231:1 #
-0.0068162167454738371 49:1 219:1 265:1 319:1 406:1 598:1 1106:1 2796:1 12746:1 #
0.0068162167454738371 26:1 45:1 49:1 217:1 354:1 601:1 604:1 971:1 4313:1 4336:1 #
0.0068162167454738371 26:1 31:1 219:1 319:1 743:1 912:1 978:1 1293:1 1458:1 1585:1 6176:1 7762:1 7763:1 #
-0.0068162167454738371 24:1 42:1 101:1 147:1 251:1 608:1 735:2 831:1 1474:1 3210:1 3584:1 #
-0.0024407563639242892 49:1 61:1 103:1 130:1 190:1 217:1 236:1 265:1 333:1 351:1 406:1 1922:1 2831:1 #
-0.0022752599068638418 8:3 15:1 25:1 50:1 68:2 85:4 90:2 155:1 172:3 193:2 201:1 205:1 222:3 232:2 289:2 346:1 353:1 354:1 360:1 417:2 476:1 530:1 554:1 755:1 792:1 824:1 825:1 897:1 940:3 1246:1 1388:1 1450:4 1451:1 1929:1 2119:1 2123:5 2154:1 2242:1 2245:1 2409:1 2642:1 2771:1 3863:1 4485:1 7803:1 #
-0.0018349012020834016 8:2 9:1 20:1 25:1 70:5 84:1 114:1 146:2 222:1 227:1 296:1 321:1 430:1 455:6 487:1 501:2 568:2 572:2 913:1 1108:1 1141:2 1205:1 1215:1 1494:1 1502:3 1515:1 1726:1 1777:1 2499:1 2961:1 4675:1 6847:1 8541:1 8893:4 8894:2 8895:3 8896:1 8897:1 8898:1 8899:1 #
0.0011712722959310944 8:4 24:1 25:1 26:1 49:2 50:1 253:1 283:1 286:1 312:1 345:1 353:2 430:2 467:1 469:1 501:2 526:1 601:3 635:1 636:1 685:1 847:1 1014:4 1019:1 1026:1 1348:1 1423:1 1493:2 1557:1 1561:1 1567:1 1588:3 1589:2 1590:1 1969:2 1987:1 2176:3 2212:1 2966:7 2967:1 2968:1 2969:1 2970:2 2971:1 2972:1 2973:1 #
0.0022144375891097025 8:4 12:3 24:1 25:1 26:1 44:1 49:1 50:1 60:1 123:1 137:1 143:1 159:1 163:4 212:1 226:3 287:1 305:2 331:1 404:1 406:2 436:1 452:1 493:1 499:1 501:2 556:1 601:1 657:1 683:1 700:1 719:2 762:1 813:2 913:1 1019:2 1170:1 1821:1 1915:1 1958:1 2198:2 2316:1 2431:1 2802:2 5039:1 6855:3 6856:1 7559:1 #
0.0068162167454738371 8:4 16:2 23:1 25:1 26:1 31:2 40:1 49:4 50:1 60:1 118:1 137:1 146:2 180:1 225:1 234:1 250:1 269:1 284:1 319:1 365:1 395:1 412:1 418:3 541:1 598:1 1114:1 1129:1 1205:1 1224:1 1396:1 1524:3 1803:1 1902:1 2069:1 3261:1 3832:1 10254:1 10255:1 10256:1 10257:1 10258:1 #
0.0049280537457874066 8:1 12:1 16:1 25:1 26:1 40:2 48:1 49:1 50:1 137:1 180:1 222:2 226:1 261:1 287:1 289:1 314:1 315:1 338:1 554:1 603:2 685:1 777:1 851:1 962:1 1365:2 1567:1 1588:1 1626:2 1949:1 1950:1 7917:2 9387:1 #
0.00053703762051032495 5:1 8:4 16:1 21:1 24:1 25:1 26:1 40:1 43:2 46:1 50:3 54:1 60:1 83:1 84:1 130:1 151:1 168:1 172:1 185:1 188:1 191:1 227:1 228:1 296:1 306:1 321:1 390:1 406:4 424:1 439:1 450:1 467:2 530:1 541:2 618:1 635:1 640:1 650:1 700:1 745:1 789:1 842:1 921:1 978:2 1019:1 1089:1 1092:1 1126:4 1279:1 1475:1 1559:1 1561:1 1626:1 1659:1 1824:1 1842:2 1915:1 2196:1 2198:3 2460:1 2683:1 3199:2 3200:6 3201:2 3202:1 3203:1 3204:1 3205:2 3206:1 3207:1 3208:1 3209:1 3210:4 3211:1 3212:1 3213:1 #
0.0068162167454738371 26:1 50:1 190:1 226:1 235:1 305:1 321:1 1500:1 1824:1 4807:1 #
0.0056594366594842418 2:1 3:1 9:1 26:1 49:1 601:1 971:1 2147:1 3045:1 4293:1 11673:1 #
0.005711906100493689 8:1 25:1 26:1 50:3 61:1 75:1 201:1 226:2 231:2 296:1 316:1 318:1 319:2 321:1 353:1 435:1 455:1 488:1 499:2 572:1 604:1 605:1 640:1 645:1 650:1 717:1 817:1 1283:1 1406:1 1502:2 1761:1 1833:1 2147:1 2149:4 2150:3 2740:1 3805:1 4374:1 4476:1 4653:1 5382:1 7829:2 7830:3 7831:1 7832:1 7833:1 7834:1 #
0.0026527965240087043 6:1 8:1 9:1 11:1 25:1 26:1 34:1 36:1 49:1 50:1 56:1 114:1 148:1 172:1 205:2 345:1 417:2 649:1 650:1 792:1 825:1 862:1 912:1 1293:1 1558:1 1639:1 1747:1 1901:1 3067:1 3421:1 3572:1 5058:2 7381:4 9156:1 9157:3 9158:1 9159:1 9160:1 9161:1 #
0.0016196389026194931 12:1 26:1 40:1 50:1 148:1 217:1 285:1 530:1 2422:1 5629:2 #
-0.0001182366711838345 8:1 24:4 25:1 47:1 60:3 82:1 184:2 201:1 226:1 251:1 353:1 389:1 406:1 483:1 685:2 883:2 1013:1 1073:1 1095:1 1299:1 1493:1 1557:4 2362:1 3642:2 5922:1 #
-0.0068162167454738371 1:1 24:1 31:1 40:1 110:1 485:1 601:1 743:1 1058:1 2414:2 #
-0.0012363264633334858 1:1 8:5 16:4 21:5 25:1 31:3 40:2 42:2 47:1 49:2 50:4 67:1 75:1 86:2 119:1 132:1 145:1 163:1 172:1 219:1 230:1 392:3 483:1 581:1 634:1 683:2 745:2 1181:2 2028:2 2354:1 2424:1 2918:1 5072:1 5513:1 6508:1 7459:1 10059:2 10060:1 10073:3 #
-0.0021680798084551655 8:3 25:1 31:4 40:2 44:1 50:2 81:3 82:1 117:1 137:2 146:1 153:1 250:1 251:1 284:1 289:1 303:1 321:2 353:2 436:1 484:1 522:2 541:1 554:3 649:1 650:1 670:1 755:1 762:2 812:1 818:2 827:1 851:1 934:3 1086:1 1127:1 1141:1 1270:2 1287:1 1518:2 1639:1 1833:1 1834:1 1984:4 2281:1 2955:1 3572:2 3597:1 3765:1 4070:1 4554:1 8472:1 13507:1 #
-0.0016946500557150127 3:2 8:5 11:1 25:1 50:3 60:9 90:1 151:1 180:1 193:3 200:6 240:2 296:1 306:4 319:2 353:3 360:1 424:1 436:1 550:2 605:1 606:1 616:1 636:2 643:1 777:1 779:1 802:1 826:1 827:1 848:1 876:2 883:1 934:1 1088:1 1089:3 1117:1 1142:1 1229:1 1469:2 1562:1 1639:1 1684:1 1815:1 1819:2 1907:1 2160:1 2418:1 2483:1 2667:1 2817:1 2928:2 3078:1 3420:1 3821:1 3937:5 3941:1 3942:1 4467:1 4469:1 4587:1 5459:2 10227:1 12221:2 #
-0.0054342537830150157 1:1 3:1 5:1 8:4 9:1 10:1 12:1 16:1 21:1 24:1 25:1 31:4 40:2 50:7 60:1 107:1 117:2 143:1 145:2 146:1 172:1 193:2 216:1 274:1 375:1 392:1 459:1 550:1 597:1 649:1 650:1 687:1 688:1 777:1 787:1 1061:1 1086:1 1120:1 1194:1 1759:1 1901:1 2338:1 2437:2 2603:1 3406:1 4023:5 5151:1 5152:2 5153:1 5154:1 #
-0.0068162167454738371 1:1 316:1 319:1 563:1 1669:1 1862:1 3121:1 12512:1 #
0.0057476500135510084 8:2 12:1 19:1 24:3 25:1 26:1 33:1 40:1 48:2 49:2 50:2 82:1 90:1 114:1 118:1 157:1 193:1 222:2 226:1 235:1 265:1 269:1 282:1 289:1 305:1 346:2 353:2 484:1 530:1 730:1 931:1 1058:1 1222:1 1233:1 1288:1 1308:2 1557:1 1565:3 1566:1 1567:1 1595:1 1714:1 2108:1 2266:1 2767:1 3003:1 4411:1 7132:4 7133:2 7134:2 7135:1 #
0.0068162167454738371 1:1 8:2 12:1 23:1 24:3 25:1 26:1 31:2 34:1 40:4 69:2 75:1 85:1 98:1 102:1 104:2 117:3 155:1 165:1 222:1 231:1 274:1 395:1 404:1 567:2 568:2 572:2 597:1 619:1 712:1 813:1 971:2 985:1 1113:1 1244:1 1313:1 1839:1 1854:1 2026:1 2251:1 2536:1 2844:1 2897:1 3401:2 4353:1 14516:1 #
0.0019138217941828436 8:3 11:1 12:3 16:1 24:1 25:1 26:1 33:1 40:1 47:1 128:1 235:1 265:1 392:2 395:1 455:2 460:1 479:1 526:1 632:4 817:1 874:2 1181:1 1196:1 1568:1 1798:1 1855:3 1856:7 1857:4 1858:3 1859:2 1860:1 1861:2 1862:1 1863:1 1864:1 1865:1 #
0.0068162167454738371 8:1 26:1 40:1 46:1 90:1 99:1 287:1 530:1 3124:1 6479:1 #
-0.0014443381364847875 1:1 8:2 12:3 13:1 24:5 25:1 31:1 42:3 98:2 111:1 118:4 143:1 146:1 219:1 222:1 226:1 282:1 285:1 287:2 316:1 345:1 346:1 392:1 395:1 483:1 734:1 930:2 1058:1 1200:1 1359:1 1426:2 1554:3 1557:4 1567:2 1707:1 1958:1 2158:1 6874:4 6875:4 6876:1 #
-0.00093085350805608617 1:1 8:1 12:2 13:2 15:1 23:3 24:4 25:1 44:1 45:2 49:1 50:1 81:1 185:1 190:1 217:1 219:1 230:1 232:1 287:3 296:1 305:1 395:1 712:2 745:1 877:1 1041:2 1056:1 1093:1 1514:1 1558:1 1923:4 3146:1 3745:2 4149:1 5039:1 7288:2 8585:5 #
-0.0068162167454738371 49:2 217:1 236:1 265:1 319:1 360:1 6469:1 #
0.0068162167454738371 8:1 9:1 26:1 304:1 876:1 1825:1 5543:1 6214:1 6215:1 #
0.0068162167454738371 8:1 26:1 33:1 265:1 2448:1 2675:1 5386:1 #
0.0017965702658780604 8:3 12:2 16:3 20:1 22:3 25:1 26:1 31:2 42:2 45:1 49:3 50:3 63:2 69:1 81:4 82:1 119:1 130:1 137:5 142:1 143:1 145:1 151:1 158:1 163:1 172:1 217:3 315:1 331:1 334:1 367:2 405:1 406:2 419:1 436:2 437:1 474:1 484:1 499:1 500:1 522:1 524:1 555:1 558:1 567:1 574:1 597:1 616:1 632:2 647:1 712:1 745:1 774:1 777:2 792:1 813:2 818:2 848:1 879:1 886:1 980:2 1012:1 1089:2 1092:1 1116:2 1117:2 1269:2 1270:1 1289:1 1290:1 1442:1 1574:1 1619:1 1636:1 1646:1 1923:5 2126:1 2299:1 2968:1 3041:1 3176:1 3217:1 3359:2 3745:1 4302:1 4672:1 4686:2 4688:1 5615:1 6400:1 7227:1 7228:5 7229:2 7230:1 7231:1 7232:1 7233:3 7234:1 7235:1 7236:2 #
0.0018981770531822217 8:2 16:1 21:2 23:1 26:1 31:1 47:2 49:3 50:2 59:1 193:1 205:1 250:1 351:1 364:1 455:1 554:1 555:1 601:3 640:1 687:1 1161:1 1327:1 1423:1 1450:5 1451:1 1474:1 1552:2 1923:1 1957:2 3146:1 3346:1 3604:2 4266:1 6185:2 6490:3 13078:4 13079:1 13080:1 #
-0.0068162167454738371 8:1 49:2 236:1 265:1 353:1 451:1 598:1 848:1 1493:1 2729:1 #
0.0068162167454738371 26:1 114:1 777:1 998:1 1868:1 2113:1 11905:1 #
0.0013861106429121654 8:3 9:1 16:1 24:1 25:1 26:1 40:1 60:1 71:1 81:1 84:1 148:2 193:5 222:2 351:1 360:1 406:9 417:1 449:1 464:1 788:1 1141:1 1870:7 2499:4 2566:1 2723:2 3610:2 3671:1 4052:1 10594:1 10595:1 10596:1 #
0.00016438584298551502 1:2 8:6 12:2 16:5 20:1 24:2 25:2 26:1 28:1 40:4 42:1 45:1 50:2 75:1 85:3 90:1 143:1 148:1 150:1 151:1 152:2 157:1 162:2 180:3 185:1 193:2 205:1 226:1 239:5 265:2 269:2 288:2 306:2 315:1 319:1 359:1 395:1 419:1 533:2 548:1 572:5 619:1 867:1 1179:1 1224:1 1406:1 1515:1 1603:1 1877:1 2556:1 3006:1 3485:1 3490:2 3523:3 5203:1 6290:1 6302:5 6303:1 7116:1 7420:1 7527:1 12428:1 12850:4 #
-0.0068162167454738371 8:2 25:1 42:1 46:1 56:1 60:1 103:1 143:1 222:2 228:1 305:3 406:6 436:1 479:1 522:1 558:2 640:1 809:1 813:2 877:2 1019:1 1089:1 1127:1 1129:1 1196:2 1252:1 1299:1 1342:1 1399:1 1404:1 1423:1 1475:1 1519:1 1626:1 1950:1 5579:2 #
-0.0011711706022555432 1:1 6:2 7:2 8:3 9:1 11:1 12:3 15:1 16:1 25:1 34:2 50:1 51:1 219:1 220:1 224:1 312:1 364:1 619:1 774:1 809:1 885:1 1559:1 3665:2 3666:2 3667:1 #
-0.0045693880722888804 8:1 60:2 137:1 163:2 226:1 287:2 353:1 389:1 406:1 1071:1 1073:2 1287:1 1299:1 1304:1 1426:1 1493:1 1557:1 1733:1 1934:1 2362:1 3642:1 #
0.005228611739676866 8:1 16:1 25:1 26:1 31:1 39:1 85:2 522:1 635:1 712:1 830:1 1019:1 1151:1 1261:1 1561:1 2251:1 2984:1 13095:2 13096:1 #
-0.0068162167454738371 5:1 8:4 16:3 25:1 42:2 50:1 125:1 132:1 168:4 193:3 205:1 227:1 274:1 296:1 353:1 394:1 417:2 430:2 446:2 449:2 450:1 467:2 484:1 507:1 526:1 550:2 556:1 574:1 615:4 619:1 672:1 687:1 733:1 774:1 815:1 862:2 885:1 1027:1 1089:2 1290:3 1320:1 1909:1 1957:1 2391:1 2438:1 2645:1 3172:3 3173:1 3174:1 3175:1 3176:1 #
-0.001035633539297682 8:2 16:1 25:1 56:1 112:1 320:1 335:1 430:1 462:1 524:1 580:1 671:1 711:1 718:1 737:1 745:1 1012:1 1101:1 1102:3 1367:1 1378:1 1423:2 1472:3 1588:1 1707:1 1764:1 1799:1 3071:1 3166:1 3356:1 3359:1 3482:1 3918:4 5916:2 5917:1 5918:1 5924:1 5929:2 5931:1 5965:3 5966:1 5967:1 5968:1 5969:1 #
-0.0068162167454738371 1:1 21:1 100:2 146:1 242:1 591:1 1090:1 10534:1 #
0.00039308742439740467 8:5 16:1 25:2 26:1 31:1 47:1 50:7 56:1 61:3 68:1 81:1 142:1 143:1 151:1 152:1 172:1 200:2 205:1 222:2 265:1 285:1 301:1 306:1 319:4 321:4 322:1 330:1 339:1 352:1 353:2 390:3 424:1 500:4 501:1 513:1 530:1 550:5 551:1 558:2 581:1 597:1 603:2 605:3 627:1 762:1 812:3 813:1 848:2 877:1 913:1 921:2 962:1 971:1 977:1 1056:1 1127:1 1147:1 1192:1 1224:1 1292:1 1349:2 1404:1 1465:1 1469:1 1501:1 1515:1 1639:3 1668:1 1674:1 1731:2 1792:1 1824:5 1907:1 2481:2 2813:1 2817:3 2875:1 3087:2 3146:1 3420:1 3513:1 3572:1 3902:1 3937:4 3941:2 3942:3 4302:1 4421:1 4537:1 4554:1 4867:1 4983:1 5028:1 6917:1 6967:1 6968:1 7432:2 7499:1 7503:1 7504:2 9699:1 9700:1 9701:1 9702:1 #
0.0014174289502832983 1:2 8:4 10:1 12:1 16:2 24:3 25:2 26:1 36:2 40:5 42:2 46:3 47:2 48:4 49:4 50:7 54:1 60:2 63:1 84:1 98:1 105:1 114:1 137:3 147:1 148:1 151:1 180:2 192:2 193:1 201:1 205:2 222:3 227:1 250:1 287:1 289:1 306:1 345:1 352:1 353:5 395:1 406:2 417:1 430:1 431:1 436:4 440:2 452:1 456:1 467:1 473:1 501:1 563:1 601:2 603:3 605:7 627:1 630:1 638:1 650:2 663:1 674:1 679:1 714:2 722:1 743:1 749:2 825:2 855:1 883:1 1026:1 1027:1 1075:1 1102:1 1207:1 1318:1 1390:1 1424:1 1446:2 1502:1 1566:3 1567:2 1575:1 1587:5 1588:1 1589:1 1590:1 1591:9 1592:1 1593:3 1594:1 1595:1 1596:1 1597:1 1598:1 1599:1 1600:1 1601:1 1602:1 1603:1 1604:1 1605:1 1606:2 1607:1 1608:1 1609:1 #
0.00090144790811500755 8:3 16:1 21:1 25:1 26:1 30:1 42:1 45:1 47:2 70:1 76:1 84:1 85:1 114:1 119:1 132:1 143:1 180:1 205:1 273:1 468:1 583:4 662:3 745:1 862:1 998:1 1388:1 1493:3 1569:1 2005:1 2028:4 2351:2 2489:1 2496:1 4017:1 6656:1 8514:1 10119:1 12753:3 14390:1 #
0.0068162167454738371 16:1 26:1 265:1 673:1 1776:1 4487:1 6623:1 #
-0.0068162167454738371 24:2 210:1 251:1 321:1 424:1 735:2 1474:1 3210:1 12456:1 #
-0.0030907601876022212 1:1 5:1 6:2 8:4 12:3 13:1 16:3 17:1 24:1 25:1 34:1 40:2 42:1 43:2 49:4 69:1 81:1 86:1 90:3 98:3 141:1 143:1 146:1 147:1 153:1 193:1 205:1 217:1 222:3 232:3 273:1 275:1 296:1 305:1 405:1 455:1 456:1 530:1 581:1 601:2 603:1 647:1 673:1 734:1 796:1 897:1 1519:1 1567:1 2028:2 2194:1 2542:3 3263:1 4024:1 4979:1 5500:3 6622:3 6653:1 6657:3 6659:2 6660:2 8927:2 8928:2 8929:1 8930:1 8931:1 #
-0.00018786660578645249 1:2 8:11 11:1 12:1 15:1 16:2 24:11 25:1 34:1 40:17 42:2 43:2 45:1 46:1 50:2 52:1 60:1 69:3 85:2 86:2 104:1 110:2 117:3 118:1 128:2 132:1 143:1 144:2 145:3 155:1 163:2 185:1 205:1 219:1 227:2 231:2 232:4 247:1 250:1 283:1 395:1 418:1 483:1 484:4 511:2 563:1 568:2 635:1 646:1 672:1 696:1 745:1 774:1 796:1 815:1 855:2 862:2 875:1 934:1 946:1 947:2 963:1 969:2 1026:1 1034:1 1087:1 1174:1 1177:1 1181:1 1248:1 1293:1 1494:1 1596:3 1786:1 1823:1 1835:1 2005:1 2026:1 2069:1 2242:1 2243:3 2279:2 2353:1 2391:7 2455:1 2511:1 2579:1 2735:1 2803:1 2958:1 3062:13 3063:1 3064:5 3065:2 3066:3 3067:3 3068:1 3069:2 3070:1 3071:1 3072:4 3073:1 3074:2 3075:1 3076:1 3077:1 3078:1 #
0.0068162167454738371 24:1 26:1 40:1 205:1 249:1 522:1 848:1 1954:1 3335:1 #
0.0051139812905188825 8:6 12:1 16:2 19:1 24:2 25:1 26:1 30:1 31:2 40:2 42:2 49:3 63:1 81:1 86:1 90:1 104:1 111:1 125:3 132:1 158:1 175:1 193:1 236:2 265:5 286:1 351:1 354:1 365:1 406:1 415:1 416:2 418:1 435:1 484:2 509:5 522:1 530:1 534:1 556:4 567:1 574:1 597:1 604:1 632:1 643:1 687:1 688:1 712:2 774:1 830:1 906:1 941:1 969:1 1086:1 1087:1 1088:2 1092:1 1189:1 1242:2 1245:1 1310:2 1842:1 1879:1 2052:1 2391:3 3240:1 3877:3 5091:2 6566:2 10699:4 10785:1 10786:1 10787:1 #
0.0038292574501144717 5:1 8:3 16:1 25:1 26:1 30:1 42:1 50:7 81:1 143:1 193:1 289:1 353:5 367:1 406:3 462:1 572:1 613:3 743:2 847:1 848:1 912:1 931:1 1089:2 1103:1 1905:1 2199:1 2421:1 2499:2 3956:1 5158:1 11407:1 #
0.0068162167454738371 1:1 8:4 16:2 23:1 25:1 26:1 31:3 40:2 42:1 49:1 50:2 60:1 75:3 98:1 118:1 128:1 142:1 143:1 147:1 155:1 157:2 212:1 222:1 234:2 265:1 273:1 305:1 404:1 479:1 484:1 540:1 635:1 653:1 731:2 789:1 935:1 1175:1 1258:1 1295:4 1585:1 1815:1 1842:1 2160:1 9325:2 9326:1 #
-0.00016448067963311335 1:1 8:2 25:1 50:1 169:1 234:1 316:1 353:1 492:1 534:2 563:1 604:1 632:2 716:1 774:1 832:1 888:1 998:1 1403:1 1494:1 1645:1 1680:2 1805:1 1807:1 1862:2 2133:2 2230:1 2544:1 2672:2 3121:1 3660:1 3777:1 3800:2 4267:2 4645:1 5299:2 5300:2 5301:1 6531:1 #
-0.0036080412246783091 1:1 8:3 16:1 24:4 25:1 31:4 34:1 40:4 42:2 50:2 85:1 110:2 111:1 128:2 141:1 146:1 153:2 193:1 212:1 219:1 273:1 305:1 418:1 479:1 522:1 556:1 646:1 662:2 731:2 761:1 940:1 1026:1 1028:1 1045:1 1765:1 1954:1 2796:1 6378:1 6717:6 #
-0.0068162167454738371 49:1 137:1 265:1 440:1 482:1 719:1 912:1 945:1 4637:1 #
0.0007815477523936044 6:1 8:3 12:1 16:1 21:3 25:1 26:1 33:1 34:1 48:2 49:4 50:1 60:1 61:1 70:1 84:1 105:1 132:1 188:1 306:1 338:1 513:2 601:1 948:1 949:1 1026:1 1576:1 1669:2 1909:1 1938:1 2316:1 10648:4 10649:5 10650:1 10651:1 10652:1 #
-0.0068162167454738371 49:1 198:1 234:1 236:1 265:1 406:1 1106:1 2967:1 #
0.0005179728563235095 8:2 20:1 25:1 26:1 30:1 31:2 49:7 50:1 51:1 57:2 61:1 105:3 193:1 205:2 219:3 287:4 304:1 307:1 415:1 418:1 454:2 455:3 729:2 949:2 950:2 1112:1 1909:2 2010:1 3163:1 5836:1 5916:2 6459:4 6460:2 #
-0.0056999061727029485 1:1 8:1 25:1 50:1 76:1 178:1 364:1 897:1 977:1 1411:1 2093:1 2299:1 3006:2 3183:1 3184:1 3779:1 4385:1 8399:1 8833:2 8834:1 10545:1 10546:1 10547:1 10548:1 #
0.0016960208216573471 8:3 12:1 16:2 19:2 20:1 24:2 25:1 26:1 34:1 40:2 42:4 43:1 46:2 47:1 49:1 50:3 70:1 84:1 85:1 111:1 118:3 125:1 132:2 142:1 146:2 155:1 190:1 201:1 219:2 226:1 227:1 266:1 284:1 305:1 346:2 381:1 421:1 471:1 499:1 550:1 568:1 636:1 730:1 762:1 763:1 840:4 842:1 1058:1 1181:1 1222:1 1426:1 1430:1 1567:1 1801:2 2009:1 2531:1 2532:10 3253:6 3254:1 3255:1 3256:1 3257:1 #
0.0039858658225223088 26:1 27:1 250:1 319:1 522:1 912:1 2817:1 3941:1 3942:1 6967:1 #
0.0068162167454738371 1:2 5:1 8:3 13:1 16:1 25:1 26:1 31:2 40:4 42:1 43:1 50:1 54:1 89:1 146:1 237:1 353:1 460:1 604:1 619:1 635:2 643:1 721:1 733:2 796:1 862:1 1585:1 1868:1 1975:1 2184:1 2421:1 7360:4 8904:4 8905:1 8906:1 #
0.0012563573796264536 6:1 8:6 15:1 16:3 22:1 24:3 25:1 26:1 28:2 30:1 31:1 40:4 110:2 125:1 126:1 128:1 130:2 163:1 193:1 205:1 218:1 222:2 232:1 265:1 406:4 418:2 439:1 522:2 563:1 688:1 744:1 796:1 825:1 862:1 906:1 952:1 969:1 1026:1 1071:1 1072:1 1086:1 1103:1 1112:3 1134:1 1141:1 1177:1 1201:1 1326:2 1596:1 1722:1 1842:1 1935:1 2368:1 2423:1 2735:1 6353:1 8402:1 10469:2 13470:3 13471:1 #
-0.0068162167454738371 1:1 8:3 21:1 24:2 25:1 30:1 31:4 40:3 44:1 75:1 102:1 110:2 111:1 128:1 137:1 145:1 175:1 180:1 185:1 193:1 201:1 205:1 230:1 247:1 305:2 351:1 406:1 417:3 476:2 526:1 763:1 796:1 862:1 1068:3 1092:1 1661:1 1671:1 1776:1 1795:1 1814:1 1912:1 1958:1 2196:4 2197:1 3694:2 8875:1 9830:3 9831:1 #
0.0053702262586647655 1:1 6:1 8:2 11:1 24:2 25:1 26:1 33:1 40:3 44:1 49:2 50:1 52:1 60:1 75:1 111:1 114:4 131:1 180:2 196:1 209:1 212:1 225:1 247:1 251:1 296:1 360:1 383:2 395:1 421:1 440:1 479:1 484:1 530:1 615:4 636:1 759:1 786:1 787:3 796:1 985:1 1088:1 1287:1 1332:1 1958:1 2251:1 2416:1 3105:1 3106:1 7695:1 #
-0.0068162167454738371 130:1 200:1 265:1 319:1 406:1 921:1 1237:1 1931:1 2898:1 6818:1 #
-0.0068162167454738371 130:1 265:1 921:1 1265:1 1756:1 4637:1 #
-4.7343433224917282e-005 1:1 8:1 13:1 24:1 25:1 49:1 62:2 75:1 104:1 117:3 130:1 188:1 228:1 289:1 312:1 319:1 321:1 406:5 534:2 705:1 719:1 745:1 847:1 867:1 1089:1 1159:2 1304:1 1406:1 1423:2 1552:1 1879:1 1915:1 1938:1 2005:1 2199:3 2740:1 2755:1 2825:1 4576:1 4638:1 5460:1 6379:1 8723:1 10759:5 10760:3 #
-0.0012322644940334722 1:1 3:1 8:4 16:2 24:3 25:1 30:1 40:3 42:4 47:1 49:1 50:4 68:1 69:1 85:2 98:1 118:2 129:1 137:3 143:1 158:1 165:1 168:1 180:3 193:1 205:4 222:1 230:1 250:1 258:2 279:1 282:1 316:1 353:4 365:1 404:1 447:1 471:3 597:1 615:1 634:1 646:1 700:1 749:2 764:1 816:1 842:1 940:1 1051:1 1231:1 1242:3 1243:1 1247:1 1606:3 1915:1 1921:1 2242:1 2314:1 2368:1 2420:1 2484:1 2571:1 2603:1 2735:1 2984:1 3098:1 3872:1 4688:2 5142:1 5349:1 6355:1 8904:1 10744:2 10769:1 10909:1 11162:1 12023:7 12024:1 12025:1 12026:1 12027:1 12028:1 12029:1 12030:1 12031:1 #
0.00071035560699543826 3:1 5:1 14:1 16:3 17:1 22:1 25:1 26:1 31:2 42:1 45:1 48:1 49:1 50:9 69:1 81:2 83:1 166:2 172:1 200:1 205:1 265:1 285:1 287:1 296:2 353:6 377:1 390:4 404:1 418:1 424:1 436:2 452:1 480:1 488:1 522:1 534:1 548:3 597:1 688:1 712:1 827:2 848:1 883:1 971:1 1034:1 1122:1 1129:1 1192:1 1198:1 1245:2 1287:5 1310:2 1320:1 1342:2 1400:1 1440:1 1688:1 1707:1 1798:1 1801:1 1813:1 1824:4 1825:1 1899:1 1903:1 1907:4 1969:1 2026:3 2206:3 2731:1 2740:1 2747:1 2813:1 2817:1 2927:2 2949:2 2952:1 3087:2 3233:3 3424:1 3574:1 3801:2 3941:1 3942:1 4588:1 4836:1 4854:1 6008:1 6293:1 6967:1 6968:1 7116:1 7405:1 7423:2 8221:1 9978:1 9979:1 9980:1 #
0.0012302222008128822 5:3 8:2 9:1 25:1 26:1 33:1 50:1 205:1 354:1 406:1 416:1 452:1 563:2 613:1 817:1 934:1 996:3 997:1 998:1 999:1 1000:1 1001:1 1002:1 1003:1 1004:1 #
-0.0012849263630007686 1:1 8:6 16:1 21:1 25:1 42:1 48:1 49:1 75:3 85:1 86:1 89:1 90:1 104:1 105:1 117:1 118:1 148:1 167:1 180:1 205:1 231:1 235:1 269:2 274:1 319:1 370:1 406:4 410:1 474:1 484:1 653:2 682:1 695:1 699:1 712:3 801:1 869:1 1523:1 1574:1 1681:2 1905:1 1907:1 2108:1 2119:1 2177:1 2196:5 2197:1 2251:2 2429:1 2503:1 2562:1 2865:1 2946:1 3716:1 3958:1 4491:1 4598:1 4878:1 4898:1 5266:1 8490:1 9010:1 9098:5 9099:1 9100:1 #
-0.0017919465900505264 1:1 6:2 7:3 8:3 14:1 15:1 16:1 24:1 25:1 31:1 40:1 81:2 169:1 205:1 209:1 287:2 316:1 411:2 415:1 435:1 455:1 604:1 605:1 948:1 949:1 950:3 2742:1 3447:1 3875:1 4212:1 9637:3 9638:1 #
0.0012362941912825403 8:4 16:3 20:1 25:1 26:1 50:6 56:5 89:1 141:1 151:1 172:1 188:1 216:1 227:1 230:1 305:1 330:1 352:1 353:2 360:1 405:2 435:1 464:1 488:1 501:1 530:1 550:1 563:1 580:1 615:1 632:1 812:1 813:2 826:1 855:2 980:1 1106:1 1142:1 1192:1 1195:2 1245:1 1261:2 1287:1 1342:1 1463:1 1559:1 1696:1 1777:3 1891:2 1901:1 1915:1 1923:4 2182:1 2198:1 2242:1 2316:2 2337:2 2643:1 2984:1 3013:2 3054:1 3087:1 3146:2 3364:1 3370:1 3452:1 3473:1 3569:1 4427:1 4480:2 4539:1 4680:1 4682:2 4695:1 5178:1 5242:1 6423:1 8478:1 13521:4 14050:1 #
0.00065389376127102648 8:5 11:2 12:6 23:1 24:2 25:1 26:1 33:1 40:3 43:1 49:2 60:1 81:2 105:3 126:3 191:1 205:3 218:1 219:3 250:2 265:2 306:1 394:2 406:1 418:1 440:2 452:1 539:1 601:1 605:1 634:1 687:1 688:1 744:1 877:3 948:2 969:1 1026:1 1086:1 1129:1 1322:1 1671:1 2010:2 2415:1 2437:1 3221:1 3634:2 5487:4 5488:1 5489:1 #
0.0051439280790474195 6:1 8:3 11:1 12:2 14:1 16:2 25:1 26:1 49:1 192:1 193:1 218:1 219:1 227:1 312:1 364:2 601:1 623:1 673:1 1770:1 2453:1 3272:1 4742:3 4743:1 4744:2 4745:1 4746:1 #
0.0039338851158268991 1:1 5:1 8:2 9:1 12:1 15:1 16:1 24:1 25:1 26:1 31:3 40:1 42:2 110:1 117:1 125:1 128:1 143:1 145:2 146:1 193:1 205:1 212:1 231:1 273:1 305:1 467:1 503:2 522:2 527:1 544:1 551:2 558:2 636:1 712:1 733:1 796:1 862:1 1247:1 1293:1 1679:1 1761:1 1852:1 2330:1 3272:1 3572:2 3857:1 4168:1 4478:1 6651:1 11262:2 12617:2 12618:1 12619:1 12620:1 #
0.00077881177893032803 8:2 25:1 26:1 31:1 63:1 81:1 192:2 232:1 271:2 273:1 305:1 476:1 522:1 825:2 1012:1 1562:2 2028:2 2108:4 2154:1 2291:1 2354:1 6376:1 10767:1 13121:1 13122:1 #
-0.0051902353292532736 1:1 6:1 8:2 16:1 25:1 30:1 31:2 40:3 49:1 50:1 63:1 85:1 90:1 110:2 111:1 128:1 141:1 145:1 212:1 222:1 250:1 406:1 451:1 467:1 568:2 615:3 745:1 759:1 1068:1 1310:1 1948:1 2362:1 5795:1 9962:1 #
-0.0026465457175790909 8:2 25:1 119:1 155:1 163:1 188:4 191:2 226:1 239:1 430:2 444:1 446:1 462:1 743:1 1084:2 1090:1 1141:1 1358:1 1423:1 1474:1 1616:1 1622:1 2164:1 2198:2 2266:1 2769:1 2781:1 2841:1 3396:1 4185:1 4677:1 5916:1 6109:1 6165:1 6198:1 7516:1 8543:1 9803:1 11259:1 11283:2 #
-0.0068162167454738371 8:1 49:1 226:1 265:1 406:1 1189:1 1579:1 1934:1 2362:1 #
0.0010061482899654964 6:1 8:3 24:1 25:1 26:1 33:1 40:1 50:6 84:1 112:1 126:1 169:1 180:1 236:1 353:1 363:1 417:2 418:2 431:1 530:1 558:1 563:1 572:1 688:1 828:1 862:1 1088:1 1106:1 1134:1 1243:1 1310:1 1320:1 1579:1 1702:1 1714:1 2746:1 2968:2 3547:2 3991:4 3992:1 4313:1 6406:3 6407:2 6408:1 #
0.0036604363935550132 6:4 8:4 25:1 26:1 49:1 50:1 60:2 147:1 148:2 151:1 172:1 226:1 265:2 296:1 319:2 330:3 501:2 597:2 635:2 636:1 639:1 640:1 647:1 653:1 671:2 726:1 792:1 813:2 962:1 1165:1 1244:1 1313:1 1592:1 1901:1 3031:1 3234:1 3720:1 3806:1 3918:2 5226:2 5244:1 5863:1 6227:6 6482:10 12223:1 12224:1 #
0.0027198210774635177 8:2 14:1 15:1 16:1 24:3 25:1 26:1 31:1 50:1 60:3 69:1 117:1 118:1 193:2 205:1 227:1 231:1 250:1 345:1 353:3 418:1 447:1 450:1 454:1 479:1 522:2 530:2 683:1 687:1 688:1 712:1 733:1 745:1 771:1 812:1 851:1 862:1 1027:1 1086:1 1088:1 1131:1 1322:1 1493:3 1506:1 1552:1 1557:3 1567:1 1669:1 1807:1 2075:1 2974:5 2975:1 2976:1 #
-0.001012060575112988 1:2 8:4 12:7 16:5 19:1 20:1 21:2 23:2 24:6 25:1 33:1 40:4 42:3 45:1 48:1 50:3 51:1 58:1 71:1 81:1 85:1 89:1 98:1 100:4 118:2 119:1 141:1 143:1 148:1 180:1 205:4 237:1 249:1 284:1 353:3 364:1 417:1 477:1 483:1 488:1 530:3 563:1 615:1 689:1 848:1 1552:1 1555:1 1565:2 1921:1 1945:1 2778:1 2952:1 3146:1 4017:1 4970:5 5310:1 5738:1 10197:2 10198:1 #
-0.0010734032883085432 1:1 5:2 6:2 7:3 8:2 11:1 13:1 19:1 20:1 25:1 81:2 169:1 522:1 551:1 796:1 2035:1 2090:3 5203:1 #
0.0068162167454738371 12:1 26:1 40:1 224:1 764:1 1014:2 1555:1 #
0.00096935562907720708 8:2 11:1 12:4 25:1 26:1 40:1 47:1 49:2 51:1 63:1 148:1 193:1 205:2 219:1 265:1 343:3 345:2 346:1 435:1 455:2 530:1 541:1 554:1 598:2 601:2 604:1 605:1 649:1 928:3 929:1 1141:1 1147:1 1332:1 1446:1 1561:1 2689:1 2721:2 8392:1 10190:1 10191:1 #
0.0068162167454738371 26:1 180:1 1108:1 1329:1 4313:1 4336:1 8086:1 #
0.00050707779827181875 8:3 16:1 25:1 26:1 31:1 33:2 42:1 49:2 50:5 68:1 69:1 90:1 92:1 117:1 190:1 205:2 222:2 282:1 300:1 330:1 353:4 425:1 455:1 488:2 492:1 602:1 700:1 737:1 745:1 825:1 834:1 862:1 1056:3 1293:1 1421:1 1423:1 1469:1 1493:1 1494:1 1545:1 2353:1 2777:1 2781:3 2958:1 3819:1 4220:1 7427:1 11997:2 11998:3 11999:1 12000:1 12001:1 12002:3 12003:1 #
0.0068162167454738371 26:1 114:1 222:1 285:1 848:1 998:1 1939:1 1940:1 #
0.00022622145840151572 1:1 5:1 8:4 11:1 12:3 13:1 20:1 23:1 24:4 25:1 26:1 28:1 33:1 40:1 42:1 49:2 50:4 57:1 85:1 90:1 111:1 114:1 155:1 217:1 222:2 250:5 316:1 353:2 360:1 370:2 395:1 450:1 479:1 530:4 572:1 601:2 603:2 605:2 611:1 619:1 635:1 640:1 687:1 688:1 800:1 877:4 1026:1 1041:1 1198:4 1304:1 1388:1 1557:2 1559:1 1574:1 1585:1 1588:1 1614:1 1958:1 2513:1 2571:1 2778:1 2809:1 2980:1 4031:1 5123:8 5239:1 7563:1 9056:1 11944:1 14565:1 14588:7 14589:1 14590:1 #
0.0054534911485290992 8:3 9:1 16:2 19:1 24:1 25:1 26:1 36:1 37:1 40:1 42:1 43:1 44:1 49:1 63:1 75:1 85:2 105:1 114:2 209:1 223:1 225:1 265:2 400:1 449:4 602:1 655:1 1068:3 1069:1 1086:1 1192:1 1195:1 1289:1 1559:1 1616:1 1622:3 1776:1 1797:1 1979:3 2003:1 2160:1 2190:1 3221:1 4507:1 #
0.0068162167454738371 26:1 205:1 287:1 304:1 550:1 719:1 1825:1 2123:1 3821:1 7633:1 11481:1 #
0.0068162167454738371 26:1 284:1 287:1 1026:1 1178:1 4049:1 4787:1 4788:1 4789:1 #
0.0068162167454738371 26:1 28:1 205:1 287:1 1825:1 1981:1 1982:1 1983:1 #
-0.0068162167454738371 50:1 296:1 319:1 353:1 1469:1 1615:1 1617:1 3937:1 #
-0.0068162167454738371 49:1 161:1 236:1 265:1 304:1 353:1 1071:1 1493:1 #
0.0064372606642899956 8:2 10:1 13:1 15:1 19:1 20:3 25:1 26:1 143:1 205:1 209:1 279:1 312:2 406:2 563:1 567:2 572:1 627:1 777:1 805:1 2093:2 2767:1 3121:1 4085:1 4086:1 4087:1 4088:1 #
0.00065231990307894859 3:2 5:2 6:1 8:4 11:3 12:3 13:2 20:1 21:1 22:1 24:2 25:1 26:1 33:1 40:1 42:1 49:1 81:2 86:1 180:1 205:1 217:1 235:1 265:2 279:1 312:1 367:1 455:1 462:1 572:1 583:1 672:1 762:1 877:1 985:1 1669:1 1763:2 1862:1 1977:1 2206:2 2499:1 5524:1 5853:1 7607:2 13250:2 13251:1 #
0.0068162167454738371 26:1 232:1 319:1 1868:1 1875:1 3821:1 11481:1 #
-0.0068162167454738371 236:1 265:1 333:1 406:1 493:1 598:1 687:1 1322:1 1585:1 2362:1 4973:1 #
-0.0014168880275435159 1:1 8:6 9:1 16:1 22:2 24:6 25:1 30:1 31:2 40:6 42:2 52:2 69:1 75:3 84:1 85:1 86:3 98:1 102:1 104:2 117:1 128:1 130:1 141:1 143:1 146:1 155:1 158:1 168:1 185:1 190:1 209:1 212:1 219:1 250:1 251:1 406:1 417:2 418:1 450:1 454:1 456:2 465:1 563:2 712:1 829:1 971:1 985:3 1071:1 1079:2 1245:1 1320:1 1572:1 1619:1 1842:1 1975:1 2134:2 2153:1 2158:1 2243:1 2251:1 2254:4 2391:1 2536:2 3508:1 3509:1 4084:1 4898:1 5737:1 6020:1 6021:1 6022:1 6023:1 6024:1 #
-0.0016699012969236089 8:1 19:1 20:1 25:1 42:1 50:1 130:1 148:2 205:1 222:3 321:1 363:1 406:3 568:2 603:1 656:1 687:1 792:1 805:4 848:1 1068:1 1088:1 1131:1 1137:1 1152:3 1250:1 1257:1 1266:1 1299:1 1351:1 1639:1 3243:1 3761:1 4692:1 5026:1 5257:1 5372:1 5481:1 6937:1 7539:1 8491:1 8598:1 9020:1 9536:1 12916:1 12964:1 12965:2 12966:1 12967:1 12968:1 12969:1 12970:1 12971:1 12972:1 12973:1 12974:1 12975:1 12976:1 12977:1 12978:1 12979:1 12980:1 12981:1 #
-0.00059098489868441054 8:1 25:1 163:1 169:1 234:2 367:1 417:1 430:1 449:1 462:1 502:1 537:1 733:2 743:1 763:2 775:5 834:1 848:1 860:2 947:1 1114:1 1232:1 1304:1 1404:3 1763:3 1909:1 1954:3 2266:1 2343:1 2368:6 2414:1 2485:2 2538:1 2643:2 2687:4 2688:1 2765:1 2785:1 2947:1 2981:1 3042:1 3492:2 3558:1 3602:1 3610:1 3795:1 3923:2 4100:1 4224:6 4360:1 4707:2 4914:1 5693:2 5882:1 6043:1 6340:2 6341:1 6342:1 6343:1 6344:2 6345:1 6346:1 6347:2 6348:1 6349:1 6350:1 6351:1 6352:1 6353:1 6354:1 6355:1 #
0.0068162167454738371 12:2 26:1 157:1 287:1 862:1 2063:1 2064:1 #
-0.00513948042324326 1:1 6:1 8:4 11:1 12:4 13:2 14:1 15:1 16:2 25:1 49:1 50:1 60:1 81:1 193:1 219:1 295:1 296:1 312:1 314:1 364:1 467:1 530:3 877:3 1669:1 1785:2 4101:3 6486:4 8205:1 9012:1 9013:1 #
-0.006564330698637222 1:1 6:3 8:3 9:1 12:1 13:1 16:3 19:1 20:1 25:1 40:1 42:1 49:2 50:2 61:1 90:1 92:1 127:4 134:1 148:1 151:1 180:1 205:1 250:1 287:2 289:1 392:1 499:2 501:1 550:1 692:1 819:1 877:2 1005:1 1072:1 1189:1 1266:1 1365:1 1423:1 1628:1 1645:2 1801:1 1805:1 1824:2 1899:1 2552:1 2746:1 2916:1 3320:1 3821:2 6246:2 9777:1 14126:1 #
-0.0068162167454738371 1:1 6:1 7:1 775:1 776:1 777:1 #
-0.0068162167454738371 40:1 137:1 209:1 319:1 351:1 862:1 945:1 999:1 1299:1 #
-0.0064263413590864406 8:1 24:1 25:1 27:2 40:1 46:1 49:1 50:1 85:2 88:1 114:2 119:1 193:2 200:2 312:1 330:1 430:1 464:1 480:1 683:1 739:2 740:2 987:2 988:1 1472:1 1482:3 1491:1 1492:1 1493:1 1762:1 2022:1 2329:1 4521:1 6252:3 6253:1 6254:1 6255:1 #
-0.0030504667531401916 1:1 40:2 85:1 99:1 101:1 106:1 107:1 205:1 7760:1 7761:1 #
0.0044469396807496758 6:4 8:1 12:1 16:2 25:1 26:1 44:1 50:1 100:2 180:1 190:1 282:2 330:1 354:1 412:1 455:2 471:1 477:1 499:1 524:1 540:1 640:1 777:1 797:1 827:1 1088:1 1486:2 1574:1 2581:1 2668:1 3828:2 10686:2 10980:1 #
-0.004385162055346576 1:1 3:1 8:3 12:4 16:3 21:2 24:4 25:1 31:2 40:4 49:1 50:2 98:2 100:4 114:1 117:1 143:2 144:2 145:2 148:1 155:2 157:1 162:1 168:1 172:1 180:2 205:1 269:1 284:1 383:1 456:1 649:1 650:1 763:1 913:1 971:1 1034:1 1388:1 1714:1 1901:1 2254:1 3067:1 3431:1 5676:1 7327:4 7328:1 7330:1 7331:3 #
0.0068162167454738371 26:1 46:1 530:1 544:1 687:1 3539:1 5561:1 10923:1 10924:1 10925:1 #
-0.0068162167454738371 8:1 46:1 200:1 300:1 406:1 493:1 1299:1 1552:1 1575:1 #
0.0068162167454738371 26:1 46:1 49:1 530:1 550:1 2147:1 3942:1 4293:1 5878:1 #
0.0068162167454738371 26:1 180:1 431:1 743:1 974:1 1014:1 1290:1 1494:1 3574:1 4784:1 #
0.0068162167454738371 26:1 48:1 522:1 2165:1 5007:1 5008:1 9408:1 11875:1 #
0.00135411977973889 6:1 8:1 12:1 24:1 25:1 26:1 50:6 60:2 84:1 114:1 155:1 180:1 228:2 235:1 291:1 292:1 296:2 419:1 619:2 622:3 639:3 640:1 671:1 802:1 921:1 1089:1 1133:1 1149:1 1423:1 1606:1 1797:1 1824:1 1963:1 2801:1 7356:1 7357:1 7358:1 10852:6 11046:1 11047:1 11048:1 #
-0.0068162167454738371 1:1 5:1 6:1 8:1 11:1 13:1 14:1 25:1 28:1 30:1 43:1 45:2 81:1 127:1 219:1 287:1 364:1 1973:2 2421:1 2483:1 3019:1 3320:1 7673:2 7674:1 #
0.0022805737441138549 3:1 5:1 8:3 11:1 12:2 16:1 21:1 23:1 24:4 25:1 26:1 33:1 46:1 48:1 49:1 50:3 77:5 99:1 102:1 111:1 117:1 133:1 180:1 193:1 205:1 265:1 360:1 404:1 467:1 526:1 548:4 554:3 563:1 579:1 645:1 731:6 745:1 760:1 771:1 796:1 830:1 851:3 877:1 905:1 934:1 946:1 2123:1 2154:1 2377:1 2421:1 2475:1 2980:1 3029:1 3569:1 3599:1 5922:1 6885:1 7018:6 #
0.00071310716111820758 8:3 24:2 25:1 26:1 40:2 43:1 44:2 50:2 60:1 68:1 76:1 88:1 89:1 200:3 227:1 265:1 275:1 314:1 315:1 363:1 424:1 439:1 440:1 479:1 522:1 597:1 601:1 662:1 672:1 1088:1 1304:1 1345:1 1569:1 1668:1 1929:1 2005:1 2377:1 2972:1 4915:1 6254:4 6309:6 6310:1 6311:1 6312:1 6313:1 6314:2 6315:1 #
0.0068162167454738371 26:1 90:1 152:1 303:1 319:1 331:1 530:1 3124:1 6479:1 #
-0.0037882433324250057 5:1 8:3 16:1 24:2 25:1 40:1 49:1 143:1 193:1 198:1 212:1 227:1 265:3 404:1 447:1 522:2 554:1 555:1 636:1 731:3 743:2 745:1 755:1 774:1 796:1 851:2 930:3 977:1 989:1 1026:1 1355:1 1390:1 1446:1 1588:4 2123:1 2154:1 2342:1 2594:1 3685:3 3692:1 3693:1 3694:1 3695:1 #
-0.0068162167454738371 50:1 215:1 437:1 449:1 554:1 755:1 760:1 1470:1 2342:1 2980:1 6200:1 #
-0.0023520256355448136 5:2 8:2 13:1 15:1 16:2 21:1 24:5 25:1 42:2 49:2 50:1 69:1 73:1 146:1 147:1 185:1 251:1 360:1 367:1 471:2 477:1 479:1 540:1 554:3 555:2 572:1 643:1 755:1 760:5 763:1 934:6 1026:1 1070:2 1467:1 1890:1 2499:1 3320:1 7815:2 9504:1 #
0.0032185845718294246 1:1 8:4 16:1 24:2 25:1 26:1 31:5 40:2 42:1 50:4 67:1 143:1 198:1 205:1 250:2 353:1 450:1 526:1 547:1 627:1 795:1 1233:1 1390:1 1519:1 1875:1 2032:3 2149:1 2150:1 2386:1 2387:1 2420:1 2778:1 3642:1 3936:1 4374:1 11552:2 13871:3 13872:1 13873:3 #
-0.0042629348272744672 8:3 16:2 24:5 25:1 31:2 40:1 47:2 49:1 50:2 141:1 193:1 199:2 217:1 284:1 422:2 554:1 615:1 638:1 642:3 685:1 755:1 760:2 892:1 936:2 1004:1 1089:2 1423:2 1559:1 1622:1 3231:1 3936:1 5517:2 6256:2 #
-0.0068162167454738371 1:1 8:1 24:1 25:1 30:1 31:2 40:2 110:2 128:1 130:1 205:2 273:1 305:1 412:1 563:1 764:1 848:2 2202:1 3043:2 7994:1 13497:1 13498:1 13499:1 #
-0.0010718456158628554 1:1 6:3 8:1 12:3 13:1 23:1 24:3 25:1 44:2 50:1 51:1 60:1 83:1 89:2 219:1 226:1 306:1 330:1 455:1 462:1 632:1 682:1 762:1 877:4 935:1 1064:1 1084:1 1130:1 1412:3 1421:1 1423:1 1495:3 1575:1 2802:1 3031:1 3826:3 13359:1 #
0.0034288838693292412 8:3 9:1 10:2 16:3 25:1 26:1 34:1 50:1 56:1 80:2 81:1 155:1 172:2 205:1 222:1 227:1 479:1 541:1 604:1 897:1 1012:2 1239:1 1293:1 1493:1 1853:1 2767:1 2803:1 5985:3 5986:3 5987:1 5988:1 5989:1 #
0.0020668222482078239 8:2 16:1 25:1 26:1 40:1 43:1 85:1 89:1 119:1 128:1 143:1 180:1 184:1 195:2 205:1 222:1 235:1 249:1 439:1 615:3 636:1 640:1 715:3 862:1 1089:2 1565:1 2086:1 2759:1 2771:1 10024:1 10025:1 #
0.0013057203425169777 8:3 11:1 12:3 13:1 16:1 24:1 25:1 26:1 30:2 49:1 52:1 145:2 153:1 180:2 222:1 227:1 265:1 275:1 513:1 636:1 877:1 1012:1 1172:1 1596:1 1859:1 2862:1 3787:3 4478:1 7847:4 7848:1 7849:2 7850:1 7851:3 7852:1 7853:1 7854:1 7855:1 #
-0.0028071638021594865 8:4 25:1 47:1 52:1 56:1 231:1 321:1 430:2 762:1 962:1 1012:1 1101:1 1102:1 1367:1 1588:1 1821:1 1931:1 2266:1 2769:1 2841:4 3013:1 3071:1 3359:2 3918:2 4029:1 4940:1 5455:1 5917:1 5952:1 5965:1 6056:2 6121:2 6122:1 6123:2 6124:1 6125:1 6126:1 6127:1 #
-0.0023471132817399578 1:1 8:5 10:1 16:3 23:1 25:1 34:3 36:1 40:2 42:1 75:2 85:2 102:1 104:3 108:1 117:2 145:1 146:1 148:1 155:1 167:1 171:2 172:1 185:1 205:1 212:1 215:1 217:1 226:1 237:1 240:1 404:1 406:1 416:2 453:1 454:2 483:1 559:3 605:1 649:3 650:1 774:1 838:1 862:1 1026:1 1088:1 1161:1 1257:1 1308:1 1411:1 1795:1 1901:2 1975:1 2740:1 3961:3 3962:1 4265:1 6023:1 6284:1 7703:1 9446:1 12636:4 12637:1 12638:1 12639:1 12640:1 12641:1 12642:1 #
-0.0068162167454738371 1:1 6:2 7:2 8:2 9:1 10:1 11:1 12:3 13:1 15:1 16:1 25:1 34:2 51:1 219:1 220:1 250:1 312:1 364:1 636:1 774:1 1012:2 7037:2 7038:1 #
0.0012999939402794048 8:2 24:1 25:1 26:1 40:1 61:1 85:1 92:1 111:1 117:1 128:1 168:3 205:1 251:1 285:1 460:1 476:3 502:1 522:2 526:1 687:1 738:1 930:1 971:1 1026:1 1089:2 1290:1 1404:1 2156:1 2366:1 2368:1 2645:1 2687:2 5473:1 5815:5 6353:2 6591:1 7246:1 #
0.0051276375608009577 8:1 24:2 25:1 26:1 30:2 31:2 40:2 47:1 50:1 102:1 110:1 111:1 143:1 146:1 193:2 201:1 205:1 273:1 305:1 362:1 406:2 449:1 450:1 451:2 1088:2 1233:1 1958:1 2196:4 2197:1 2362:1 6114:1 #
-0.0068162167454738371 40:1 137:1 209:1 265:1 319:1 351:1 945:1 999:2 #
-0.0068162167454738371 1:1 42:1 99:1 101:1 114:1 346:2 1148:1 4741:1 #
0.0068162167454738371 24:1 26:1 40:1 83:1 114:1 319:1 1261:1 3863:1 6991:1 8792:1 12004:1 #
0.0068162167454738371 26:1 40:1 99:1 287:1 319:1 802:1 876:1 2054:1 5543:1 6214:1 6644:1 #
-0.0049391365777020496 8:2 24:1 25:1 42:1 50:2 57:1 119:1 222:1 227:1 321:1 431:2 501:1 567:2 637:1 671:1 735:1 1224:1 1470:4 1475:1 1661:1 2245:2 2485:3 2643:1 2758:1 3584:2 3585:1 3594:1 6063:1 6520:3 6779:1 9097:1 9226:1 #
-0.0022277715432598173 8:1 25:1 27:1 85:1 172:1 226:1 343:1 503:1 508:1 648:5 735:3 792:1 834:1 870:1 1305:1 1756:1 1849:1 1857:1 2011:2 2996:1 3642:1 3961:1 4032:2 4208:1 5947:1 6603:1 7954:1 11808:1 11809:1 14448:2 14449:1 #
0.0030937914407447209 1:1 8:4 12:1 24:2 25:1 26:1 31:2 36:1 41:1 43:1 44:1 45:1 46:4 50:1 60:1 61:1 63:2 75:1 84:1 114:1 118:1 124:1 148:1 155:1 193:1 250:1 265:4 271:2 284:1 287:1 319:1 345:1 402:1 406:1 476:2 500:1 524:1 530:1 666:1 674:1 722:1 895:1 977:1 1088:1 1107:1 1142:1 1161:2 1246:1 1279:1 1365:1 1385:1 1423:2 1492:1 1502:1 1567:1 1588:1 1802:1 2251:1 2409:1 2443:1 2918:1 3038:5 3046:2 3047:3 3048:1 3049:1 3050:2 3051:3 3052:1 3053:2 3054:1 3055:2 3056:1 3057:1 3058:2 3059:1 3060:1 3061:1 #
-0.00014516971197881212 1:1 8:6 10:3 12:4 16:2 24:5 25:1 34:1 40:1 42:3 44:1 47:1 49:1 50:4 70:1 84:1 85:1 102:1 111:2 117:3 118:5 119:1 148:1 151:2 165:1 171:2 184:2 185:1 216:1 222:3 225:1 227:1 228:1 230:1 231:1 234:1 235:3 265:1 283:1 285:2 287:1 289:1 296:2 319:2 345:2 346:3 353:3 365:1 395:1 436:1 460:1 496:1 499:1 530:5 603:1 605:1 629:1 632:1 640:2 649:3 653:1 663:1 666:1 711:2 774:1 818:1 832:1 874:1 900:1 922:1 931:1 962:2 971:1 1088:4 1097:1 1113:1 1175:1 1200:1 1207:1 1246:2 1283:1 1359:1 1410:1 1411:1 1426:1 1427:1 1475:2 1493:2 1519:1 1557:3 1567:3 1585:2 1599:1 1626:2 1653:1 1710:2 1719:1 1810:1 1815:1 1824:2 1827:1 1842:1 1853:4 1901:4 1905:1 1958:2 1962:1 2128:1 2227:2 2425:1 2711:1 2740:1 2806:1 2846:1 3038:8 3047:1 3119:2 3571:1 3690:1 3761:8 3950:1 4182:1 4300:1 4431:1 4467:1 4476:1 4859:1 5510:1 6097:1 6134:3 6198:1 7099:1 8068:5 8728:1 8864:2 9483:1 9837:4 9838:1 9839:1 9840:3 9841:1 9842:2 9843:1 9844:1 9845:1 9846:1 9847:1 9848:1 #
0.00051131334047987216 8:2 15:2 24:1 25:1 26:1 33:1 40:1 50:1 114:1 128:1 168:1 169:1 193:1 198:1 205:1 209:1 222:3 230:1 273:2 289:1 305:1 314:1 352:1 400:1 417:1 477:1 572:1 731:4 743:8 897:1 1014:2 1802:1 1954:5 2767:1 2968:9 3494:1 3692:2 5245:1 9174:1 #
-0.004382074449441371 24:2 116:1 296:2 321:1 608:1 1270:2 1922:1 1923:1 #
-0.0023516601860287438 8:2 14:1 25:1 69:1 104:3 231:2 236:1 261:3 265:1 287:2 333:2 354:1 383:1 394:1 404:1 406:1 451:3 452:2 830:1 844:1 989:1 1071:1 1088:1 1109:1 1232:2 1565:1 1579:1 1602:5 2251:1 3837:1 4327:1 4902:1 11381:1 #
-0.0014156255350553559 8:2 24:2 25:1 40:2 42:1 296:3 321:1 422:2 455:1 463:1 685:1 862:1 912:1 1293:2 1524:1 2063:1 2165:1 3001:1 3629:1 5481:3 8042:2 10357:3 10358:1 10359:1 10360:1 10361:1 10362:1 10363:1 10364:1 #
-0.0068162167454738371 1:1 285:1 1981:1 1983:1 2365:1 #
0.0068162167454738371 16:1 24:1 26:1 40:1 46:1 319:1 7766:1 8646:1 13705:1 #
0.0038574865829711538 26:1 36:1 49:1 56:1 83:1 601:1 879:1 971:1 1310:1 8238:1 12864:1 #
-0.0043598024502150739 1:1 15:1 16:1 25:1 30:1 40:2 42:2 85:2 99:1 105:1 108:1 117:3 128:1 131:1 146:1 287:1 613:1 632:1 848:1 10642:1 #
-0.0068162167454738371 190:1 319:1 397:1 848:1 1299:1 1348:1 1364:1 6818:1 #
0.00055668741688469532 8:3 16:1 25:3 26:1 31:4 46:2 49:1 50:4 81:2 151:2 193:1 205:1 226:1 240:2 250:1 265:1 321:4 330:1 336:1 353:3 390:1 400:1 431:1 477:1 488:1 499:1 501:1 534:1 706:1 777:2 817:3 921:1 1034:1 1072:1 1089:1 1142:1 1192:1 1215:1 1246:1 1287:1 1349:1 1475:1 1497:1 1552:1 1639:2 1668:1 1756:1 1786:1 1805:1 1865:1 1907:4 1908:1 2184:1 2190:1 2274:1 2472:1 2483:4 2553:1 2817:1 2839:3 3368:2 3420:1 3513:1 3648:1 3937:4 3941:2 3942:1 4469:1 4584:1 6185:1 7189:1 7499:1 7503:1 7504:5 7527:1 7540:1 7979:3 #
0.0013817425411781863 8:1 12:2 24:1 25:1 26:1 33:1 40:1 42:1 46:1 48:1 49:2 50:1 172:1 225:1 265:2 439:1 538:1 862:1 877:1 912:1 930:2 1127:1 1170:1 1276:1 1486:1 1588:1 2123:3 2206:3 2251:1 2334:1 2343:1 3414:1 3826:1 5569:6 5570:6 5571:1 5572:1 5573:1 5574:1 5575:1 #
0.0068162167454738371 26:1 50:1 296:1 353:1 550:1 605:1 1400:1 1441:1 1824:1 4476:1 12327:1 #
0.0068162167454738371 6:1 12:1 26:1 40:1 287:1 5559:1 5560:1 5561:1 #
-0.0068162167454738371 18:1 50:1 111:1 175:1 319:1 353:1 550:1 554:1 755:1 9509:1 #
0.0049540127783369607 26:1 511:1 522:1 967:1 968:1 1722:1 6246:1 6247:1 6248:1 #
-0.0041753277933113207 1:1 8:2 16:1 21:1 25:1 31:2 40:8 42:3 43:1 71:1 106:1 117:1 118:3 128:1 143:2 144:1 145:2 146:1 155:2 221:1 250:3 257:1 392:1 479:1 484:2 920:1 1174:2 1605:1 1963:1 5194:1 8826:1 8827:1 #
-0.0068162167454738371 75:1 190:1 319:1 397:1 848:1 1299:1 1348:1 1730:1 6818:1 #
0.0068162167454738371 26:1 49:1 530:1 1821:1 1977:1 4313:1 4336:1 #
0.0068162167454738371 26:1 56:1 354:1 1246:1 1403:1 4308:1 4313:1 4336:1 6055:1 #
0.0068162167454738371 26:1 319:1 733:1 862:1 1310:1 2028:1 3444:1 4226:1 5845:1 #
-0.0028007627978522314 8:3 20:1 25:1 50:2 52:1 82:1 84:1 86:1 114:1 146:1 175:1 188:1 198:1 219:1 307:1 321:1 335:1 430:1 453:1 460:1 513:1 635:1 731:2 759:2 761:1 927:1 978:3 1142:2 1233:1 1424:2 1425:1 1559:1 1595:1 2006:1 2217:3 2231:1 2266:1 2687:1 2757:4 2758:1 2759:1 2760:1 2761:1 2762:1 2763:2 2764:1 2765:1 2766:1 2767:1 2768:1 2769:1 2770:1 #
0.0068162167454738371 13:1 16:1 26:1 31:1 619:1 777:1 1013:1 2351:1 4951:1 #
0.0068162167454738371 8:1 10:1 19:1 20:1 26:1 615:1 777:1 1180:1 1628:1 1645:1 2781:1 4220:1 #
-0.0013272642256642378 8:1 15:1 25:1 50:2 188:1 321:1 333:3 435:1 501:2 565:1 735:1 1123:7 1181:1 1265:2 1399:1 1568:1 1784:1 1923:1 2316:1 2640:1 3199:1 3360:1 3578:3 3894:1 5178:1 5312:2 6114:1 6934:1 13468:1 #
-0.0068162167454738371 50:1 296:2 319:1 353:1 1287:1 1643:1 2839:1 3386:1 #
0.0028016738487836672 3:1 8:2 15:1 24:2 25:1 26:1 40:2 43:1 128:1 139:3 231:1 338:1 360:1 456:1 671:1 971:1 1320:1 1857:1 1858:2 2024:1 2194:1 2483:1 2486:1 2548:1 2735:1 4385:2 5854:1 7375:4 7376:1 7996:2 14486:1 #
0.0016139626940697496 8:3 11:1 12:1 14:2 16:1 24:3 25:1 26:1 31:1 40:3 49:1 50:1 63:1 100:1 109:2 110:3 111:1 128:1 144:1 145:1 146:1 193:3 197:1 198:1 212:1 219:1 271:2 321:1 501:1 522:2 554:2 555:1 563:1 583:1 601:1 643:1 687:1 692:1 731:1 803:7 1026:1 1175:1 1189:1 1659:1 1859:1 2893:1 3056:1 4416:1 5906:2 5912:1 5913:1 5914:1 5915:1 #
-0.0028626638578543519 1:1 6:1 7:1 17:1 100:1 127:1 205:1 255:1 288:1 289:1 634:1 #
0.0068162167454738371 1:1 6:1 8:2 11:1 16:1 24:2 25:1 26:1 33:3 34:1 40:2 44:1 50:1 52:1 60:1 83:1 84:1 185:1 193:1 194:1 212:1 236:1 250:1 360:1 364:1 395:1 419:1 455:1 492:1 1034:1 1572:1 3391:1 4478:1 7671:4 7672:1 8040:2 8041:1 #
-0.0068162167454738371 60:1 269:1 296:2 306:1 550:1 848:1 1282:1 6361:1 7977:1 #
-0.0068162167454738371 247:1 296:2 319:1 384:1 416:1 461:1 7977:1 8527:1 #
0.0068162167454738371 8:1 26:1 146:1 287:1 487:1 530:1 701:1 1014:1 1866:1 1873:1 13780:1 #
-0.0068162167454738371 8:1 49:2 236:1 265:1 360:1 406:1 598:1 1091:1 3422:1 #
-0.0068162167454738371 8:1 49:2 236:1 265:1 360:1 406:1 598:1 3961:1 #
0.00049159190170733889 8:3 16:1 24:1 25:1 26:1 40:1 43:2 46:1 50:2 85:1 114:3 172:1 180:2 193:1 222:2 296:2 305:1 390:1 395:1 397:1 406:1 477:1 488:2 603:2 649:1 650:1 689:1 931:1 985:1 1088:1 1147:2 1205:3 1314:2 1315:3 1502:1 1901:1 2362:1 2519:3 2996:1 3958:1 13937:6 13938:3 13939:1 13940:1 13941:1 13942:1 #
-0.0068162167454738371 50:1 319:1 353:1 390:1 554:1 755:1 2467:1 2743:1 3087:1 #
0.00048607859724765317 6:1 8:3 11:1 12:2 16:1 17:1 24:1 25:1 26:1 28:1 40:3 47:1 49:2 50:1 51:1 98:1 100:1 117:2 118:1 132:1 144:1 145:1 146:1 155:1 157:1 180:1 185:2 205:1 212:1 222:1 226:1 285:2 287:1 295:1 296:2 304:1 319:1 399:1 460:1 483:1 530:1 597:1 601:1 603:1 649:1 820:1 829:1 1189:1 1475:1 1833:1 1901:1 1981:3 1982:1 1983:5 2032:1 2033:1 2148:1 2365:2 2407:1 2408:1 2409:1 2410:1 #
0.00065566868698251177 8:1 24:1 25:1 26:1 30:1 40:1 46:1 50:1 102:1 180:1 186:1 189:3 193:2 205:1 406:9 447:1 496:1 551:1 615:2 745:1 848:5 1089:1 1572:1 3098:2 9022:1 11769:1 13980:1 13981:1 13982:1 #
-0.0054709215506031136 1:1 8:1 16:1 25:1 50:2 63:1 114:2 219:1 316:1 353:2 406:2 418:1 426:1 530:1 554:1 555:1 563:1 696:1 732:1 764:2 774:2 796:1 930:1 969:1 1086:1 1110:1 1842:1 1862:1 2513:1 3121:1 3660:2 3777:2 8031:1 9327:1 10112:1 13094:2 #
-0.00066229814402071654 1:1 6:2 7:2 8:2 9:1 11:1 12:1 14:1 16:1 25:1 32:3 40:1 43:1 51:2 100:1 114:1 209:1 220:1 223:1 224:1 468:4 669:2 952:1 1072:1 1112:1 13061:2 13062:1 13063:1 #
-0.0015060741268876241 1:1 6:1 7:3 8:2 11:1 12:2 16:1 25:1 28:3 44:1 51:2 55:1 92:1 131:1 205:1 285:1 375:3 411:1 477:1 479:1 483:1 500:1 1072:1 1120:3 1359:1 4764:1 4765:1 #
0.0068162167454738371 8:1 26:1 31:1 551:1 627:1 2073:1 3098:1 6883:1 8280:1 #
0.0046028110384695488 8:1 25:1 26:1 34:1 102:2 173:1 191:1 212:1 250:1 455:2 467:1 485:2 494:1 558:2 563:1 632:1 750:1 855:2 1019:1 1133:2 1224:1 1731:1 1808:1 2177:1 2188:1 2266:2 2492:1 3476:1 6726:1 8400:2 8401:1 9022:1 11098:1 12867:1 13638:3 13639:1 13640:1 13641:1 #
0.0068162167454738371 16:1 26:1 31:1 232:1 319:1 627:1 876:1 6215:1 #
-0.0062459874588605777 1:1 8:3 16:1 24:1 25:1 40:3 42:1 43:2 49:2 104:2 118:2 130:1 143:1 146:1 158:1 190:1 193:1 205:1 222:1 231:1 265:1 395:2 417:1 530:2 563:1 582:1 602:1 603:1 643:1 646:1 745:1 774:1 874:2 946:1 1071:1 1092:1 1130:1 1569:1 2065:1 2154:1 2202:1 4535:1 10389:1 12268:2 12269:1 12270:1 #
0.0061638602286047126 6:1 9:1 26:1 170:1 190:1 205:1 530:1 599:2 1277:1 5674:1 #
-0.0068162167454738371 50:1 264:1 319:1 397:1 912:1 1093:1 1127:1 1299:1 1819:1 4554:1 6361:1 #
-0.0011032652740841638 8:3 25:2 33:1 151:1 209:1 228:1 360:1 377:1 419:1 430:3 485:2 681:1 688:1 813:2 1200:1 1207:1 1224:1 1455:2 1472:1 1477:1 1588:1 1966:1 2156:1 2184:1 2562:1 2997:1 3368:3 3610:1 5417:1 5601:1 6142:1 7500:4 7829:2 8150:2 8468:3 8472:2 11204:2 11614:1 11615:1 11616:1 11617:1 #
-0.0026512856223566794 1:1 8:1 24:1 25:1 31:2 40:1 42:1 63:1 98:1 110:2 111:1 155:1 169:1 193:1 460:1 476:1 729:2 1016:3 1017:2 1018:2 1019:1 #
-0.00011763745354641036 8:1 25:1 112:1 151:1 155:1 283:1 430:1 718:1 883:1 980:1 1012:1 1089:1 1101:1 1102:2 1290:1 1367:1 1474:1 1588:2 1859:1 2266:1 2327:1 2342:1 2472:4 2841:3 2982:1 3071:1 3359:2 3361:1 3362:1 3482:1 3583:1 3918:3 4222:1 4550:1 5655:1 5917:1 5918:1 5919:1 5965:1 6056:1 6080:1 #
0.0012745463710446649 1:1 5:1 8:3 9:1 11:1 12:4 13:1 16:1 24:3 25:1 26:1 31:1 33:1 40:5 42:1 43:1 44:1 51:1 84:1 89:1 105:1 146:1 205:1 212:1 312:1 406:1 424:1 426:1 520:1 525:1 550:1 725:1 744:1 796:1 913:1 945:2 989:1 1026:1 1027:1 1058:1 1088:1 1233:1 1247:1 1519:1 1579:1 1599:1 2354:1 3534:2 3863:2 3900:2 5675:5 7566:4 7626:5 7627:1 7628:2 7629:1 7630:1 #
0.0068162167454738371 13:1 26:1 287:1 304:1 1142:1 1180:1 1645:1 6246:1 #
0.0068162167454738371 12:1 24:1 26:1 89:1 287:1 304:1 319:1 555:1 1487:1 1488:1 #
-0.0068162167454738371 44:1 105:1 234:1 236:1 265:1 306:1 319:1 493:1 1323:1 1430:1 1502:1 #
0.00036595039904407261 8:3 16:1 24:2 25:1 26:1 30:2 31:2 34:1 40:2 42:1 85:1 86:1 165:1 193:3 212:2 234:1 345:1 346:1 360:1 381:1 418:1 540:1 688:1 774:1 1086:1 1446:1 1524:1 1899:2 2024:2 3829:1 3871:1 3872:1 3873:1 7362:1 #
0.0068162167454738371 12:1 26:1 40:1 217:1 280:1 285:1 288:1 289:1 319:1 779:1 #
0.0068162167454738371 24:1 26:1 48:1 285:1 319:1 1557:1 2028:1 2977:1 13007:1 #
0.0068162167454738371 8:1 12:1 24:1 26:1 63:1 2448:1 2675:1 5386:1 #
0.0068162167454738371 26:1 31:1 467:1 619:1 1261:1 1524:1 2123:1 12212:1 #
-0.0068162167454738371 296:2 404:1 711:1 1097:1 1161:1 1287:1 2555:1 7431:1 12153:1 #
-0.00023999246117557241 1:1 5:1 6:1 8:11 9:2 10:1 12:8 13:3 16:2 21:1 24:2 25:1 30:2 32:2 40:6 41:1 42:3 44:2 45:1 47:1 48:5 49:3 50:6 55:1 56:1 60:1 63:1 70:1 75:2 81:3 83:1 85:3 89:1 90:1 98:1 102:1 105:1 114:2 118:2 127:2 128:1 137:3 143:1 148:1 157:1 163:1 165:1 177:1 190:1 192:3 193:1 200:1 212:1 215:1 222:5 224:1 232:2 234:1 247:1 250:3 265:1 296:2 305:1 316:2 319:1 353:1 395:1 418:2 454:1 461:1 462:1 463:1 471:1 477:1 488:5 499:1 500:1 513:2 519:1 524:1 530:4 554:2 555:1 563:2 574:1 597:1 601:2 611:4 640:1 653:1 655:1 687:2 712:1 739:3 740:3 743:1 768:1 781:1 834:1 842:1 869:1 877:6 895:1 921:1 930:1 1019:1 1041:1 1156:1 1233:1 1248:1 1279:1 1367:1 1428:1 1457:1 1491:2 1492:1 1493:1 1495:2 1554:2 1561:1 1568:1 1660:1 1663:1 1699:1 1730:1 1761:1 1767:1 1775:2 1797:1 1803:1 1806:2 1819:1 1957:1 1966:4 2026:1 2281:1 2435:1 2453:1 2474:1 2523:1 2796:1 2838:1 2981:1 3071:1 3115:1 3127:1 3320:1 3365:1 3406:1 4117:1 4219:1 4472:1 4598:1 4876:1 5361:1 5382:1 6235:1 6236:1 7605:1 8631:1 9213:14 11553:2 11683:1 11982:10 11983:1 12748:4 12749:1 12750:1 12751:1 #
0.0068162167454738371 26:1 31:1 44:1 45:1 319:1 601:1 851:1 1179:1 1423:1 1486:1 5587:2 #
0.0068162167454738371 24:1 26:1 40:1 49:1 265:1 509:1 522:1 5091:1 10699:1 #
0.0068162167454738371 6:1 8:1 26:1 265:1 597:1 3806:1 6227:1 6482:2 #
0.0035195760089378508 8:3 24:2 25:1 26:1 28:1 30:2 31:2 40:2 49:1 114:1 176:1 225:1 265:1 316:1 461:1 563:1 636:1 774:1 776:3 855:1 877:1 1568:2 1569:1 1710:1 1805:2 2231:1 4695:2 5213:1 5841:1 #
0.0048229644933008506 6:3 12:1 16:1 25:1 26:1 40:1 50:3 146:1 287:2 296:1 305:1 307:1 314:1 321:1 455:1 499:1 530:1 615:1 639:1 1475:1 1567:1 1641:1 1949:1 3320:1 5244:1 5624:2 5625:2 5626:3 5627:1 5628:1 #
0.0012975102482115162 6:2 8:1 11:1 24:3 25:1 26:1 40:2 44:1 46:2 49:1 69:1 143:1 205:1 212:2 250:1 405:1 447:1 450:1 493:1 553:1 554:4 601:2 636:1 688:3 737:1 745:1 977:1 1012:1 1026:1 1034:1 1176:2 1242:1 1882:1 2004:1 2581:1 3715:1 4894:1 5655:4 8952:4 8953:1 8954:2 8955:2 8956:1 #
0.0052623281414349923 1:1 3:1 8:2 25:1 26:1 31:2 42:1 50:2 54:1 56:2 69:1 86:1 143:1 144:1 145:1 168:2 169:1 193:1 205:1 219:1 231:1 232:1 289:1 476:2 522:2 526:1 534:1 548:1 551:1 568:1 636:1 687:1 744:1 750:1 960:1 1026:1 1285:1 1993:1 3458:3 3459:1 3460:1 3461:1 #
-0.0068162167454738371 200:1 319:1 406:1 1299:1 3019:1 4919:1 6818:1 #
-0.0022222531548374115 1:1 5:3 6:4 7:2 8:3 9:1 10:2 11:1 12:2 13:1 15:2 16:1 17:3 19:2 20:3 22:2 23:1 24:2 25:1 40:1 55:1 86:1 114:1 126:2 127:1 193:1 205:2 218:2 219:1 222:2 224:4 235:1 244:1 345:1 395:1 445:1 450:1 467:1 627:1 650:1 655:1 683:1 712:1 744:1 777:2 1041:1 1141:1 1142:2 1147:1 1161:1 1388:1 1565:2 1572:3 1603:1 1660:1 1669:1 1814:1 1854:2 1921:1 2013:1 2026:1 2432:1 2508:1 2927:1 3254:1 3327:1 4478:1 5295:1 5393:1 6209:1 8967:1 8968:2 8969:1 #
0.0068162167454738371 26:1 75:1 285:1 319:1 536:1 672:1 1134:1 1833:1 2422:1 5629:1 #
0.0024963456274315638 8:2 11:1 12:2 16:1 24:1 25:1 26:1 31:1 40:1 49:1 143:2 205:1 222:1 227:1 265:1 316:1 435:1 455:1 522:1 604:1 605:1 636:1 810:1 862:1 1092:1 1261:1 1310:1 1912:1 3447:1 4265:1 6296:3 6297:1 #
6.4829634273520355e-005 1:1 6:4 8:5 12:3 16:7 24:2 25:2 26:1 31:1 40:1 42:2 43:3 46:1 48:1 49:2 50:3 63:4 69:2 81:1 83:1 90:2 108:1 111:2 117:1 118:3 137:1 151:2 155:1 158:2 172:1 239:1 244:1 287:1 289:2 319:1 378:1 384:1 390:4 407:1 419:1 436:4 455:3 479:1 488:6 522:2 533:1 551:1 554:1 563:1 598:1 619:1 631:1 632:1 639:1 643:1 647:1 650:1 725:1 745:3 818:1 848:1 877:1 885:1 927:1 940:1 985:1 989:1 1064:1 1069:1 1084:1 1089:6 1112:2 1133:1 1203:1 1270:3 1310:1 1349:1 1571:1 1574:1 1639:1 1892:1 1958:1 2050:1 2460:1 2643:1 2718:1 2889:1 2968:1 3512:1 3610:1 3625:1 3736:4 4686:1 5380:1 5811:1 6639:2 8077:1 8080:1 9240:1 9582:1 9618:1 9619:5 9620:3 9621:2 9622:1 9623:1 9624:2 9625:1 9626:1 9627:1 9628:1 9629:1 9630:1 9631:1 #
0.0068162167454738371 26:1 40:1 90:1 99:1 212:1 285:1 998:1 2054:1 3124:1 #
-0.0012986500701947655 1:1 5:2 6:2 7:2 8:1 13:1 16:1 25:1 50:1 155:1 273:1 777:1 11088:2 12724:2 12725:1 #
-0.0030195131569502997 3:1 8:5 16:1 19:1 23:1 25:1 50:2 60:1 81:1 82:1 84:1 103:1 137:1 145:1 151:1 155:1 158:3 172:2 193:1 201:1 285:1 289:1 305:1 315:1 321:1 390:3 467:1 501:2 548:1 554:1 597:1 683:1 687:1 692:1 733:1 755:1 759:1 792:1 980:1 1089:3 1196:1 1335:1 1446:3 1486:1 1494:2 1522:1 1799:1 1929:1 1954:1 2078:1 2189:1 2242:1 2465:1 2689:1 2850:1 2853:1 2893:3 3054:2 3199:1 3202:1 3742:2 4521:1 5332:1 5358:1 6217:1 6543:1 7029:1 7030:1 7031:1 7064:1 7455:3 9522:1 9531:1 10052:1 11926:1 11927:1 11928:1 11929:2 11930:1 11931:2 11932:1 11933:1 11934:1 11935:1 11936:2 11937:1 #
-0.0010025001444357697 3:1 8:4 10:1 16:1 25:1 34:1 42:1 50:1 81:1 90:1 132:1 146:2 168:1 193:1 205:3 222:1 227:1 287:1 305:1 307:1 316:2 353:1 363:1 390:2 404:1 436:1 488:2 550:1 554:5 650:1 755:1 802:2 817:1 848:1 851:1 862:5 885:1 934:1 1064:1 1112:2 1239:1 1293:2 1304:1 1388:2 1393:1 1446:1 1450:1 1451:1 1519:1 1733:1 1806:1 1909:4 2123:7 2182:1 2266:1 2319:1 2642:1 2689:1 2793:1 2820:1 3202:1 3513:1 3694:2 4784:1 5609:1 5711:1 6101:1 6200:5 6202:2 6232:1 7064:1 8317:1 11933:1 12005:3 12006:2 12007:1 12008:1 12009:1 12010:2 12011:1 12012:1 12013:1 #
